0.095747 0.001522 -0.020241 0.066070 -0.624599 0.045675 0.059687 -0.388630 0.151527 -0.142870
0.179257 -0.196498 0.174783 -0.368803 0.239765 0.142137 0.225023 -0.404933 0.170918 -0.708318
-0.472303 0.436563 0.404096 -0.245510 0.239864 -0.305054 -0.513856 0.222477 0.017165 -0.659971
0.006849 0.212569 0.078555 0.097038 0.099511 -0.222140 -0.302175 0.189226 0.232666 0.267825
0.076267 0.319675 0.282199 0.152862 0.071272 -0.688770 -0.382339 -0.001109 -0.049943 0.191465
0.173035 -0.322767 0.188775 0.107370 -1.051234 -0.101651 -0.370380 0.285318 0.074102 0.006460
-0.832826 0.347264 0.093089 -0.203255 0.327183 -0.317845 -0.840146 0.266337 -0.377505 0.283022
0.284618 -0.677772 -0.268020 -0.015789 0.131856 0.264086 0.312470 0.080990 -0.439556 0.175470
-0.548671 0.386738 0.485901 0.035617 -0.237584 -0.229855 -0.435427 0.279541 0.309463 -0.243053
-0.595843 0.063678 -0.466432 0.334208 -0.403379 0.567850 -0.258169 -0.672298 0.236599 0.251420
-0.860821 -0.221882 -0.262071 0.388729 0.239161 0.399900 -1.296082 -0.077241 -0.545834 0.387228
-0.269333 0.001776 0.223697 -0.084194 -0.086261 -0.038374 0.162832 -0.091464 -0.011091 -0.746386
0.238154 0.037666 -0.022614 -0.216188 -0.061903 0.050736 -0.025332 0.478731 -0.696342 -0.328891
0.362558 0.616090 0.226642 -0.163598 -0.571981 0.163170 -0.208154 0.124602 -0.722218 -0.005398
0.189548 -0.051439 0.023069 -0.452676 0.157893 0.018294 0.178564 -0.357799 0.111096 0.085353
-0.119902 0.304546 0.247985 -0.032411 0.425036 -0.129765 0.263314 -0.012631 -0.421336 -1.258141
0.260920 0.140370 0.167850 -0.449175 0.129057 0.091410 0.165075 -0.251409 -0.340981 -0.201899
-1.094463 0.030839 -0.075607 0.221693 0.012034 0.242884 -0.584944 -0.209043 0.059645 0.199402
0.150920 0.025489 -0.021011 -0.054227 0.031738 0.008948 0.138797 -0.159226 0.197464 0.132195
0.210518 -0.596727 0.194669 -0.132063 0.138962 0.018543 -0.715849 0.311511 0.105314 0.245369
-0.209286 -0.404071 -0.462894 0.308292 0.186618 0.357789 -0.805115 -0.572529 -0.231403 0.432769
0.008429 0.221338 0.335275 -0.263392 -0.502878 -0.245790 0.068834 0.049492 0.301801 -0.945694
0.279047 -0.190245 0.148694 0.129042 0.557862 0.100626 0.224549 -0.091245 -0.813982 0.170615
0.193467 0.097032 0.106650 0.038178 0.064486 0.031102 0.168555 -0.509182 0.146174 -0.597525
0.197758 -0.458556 0.118789 0.212896 -0.708297 -0.180463 -0.149750 0.156131 0.048057 0.157421
-0.045639 -0.610165 0.074763 0.056163 0.073624 0.104243 -0.004954 -0.017086 0.142564 0.114691
-0.431209 -0.007491 -0.169687 0.389225 -0.758473 0.304261 0.051550 0.216200 -0.168743 -0.046942
-0.152740 0.208550 -0.921343 0.254242 0.030606 -0.132903 -0.288910 0.296076 -0.180749 0.387226
-0.758433 0.454675 -0.504565 0.221454 -0.288314 0.265042 -0.219442 0.144594 0.122984 0.181354
-0.228707 0.305196 0.160354 -0.022834 0.152114 0.103668 0.077845 -0.574323 0.316351 -0.008980
-0.217238 0.362667 -0.343140 -0.304766 0.469267 -0.448064 0.330700 0.048789 -0.227668 -0.827388
0.346673 -0.070372 -0.261935 0.452190 -0.303560 0.381505 -0.280918 0.128414 -0.608823 -0.093536
-0.166984 -0.241232 -0.266901 -0.253741 -0.372511 0.527687 0.661045 0.225103 -0.182265 -0.097893
0.197745 -0.244718 0.040320 0.170210 -0.513577 0.165580 0.108179 -0.402948 0.224944 -0.074658
0.246899 0.144001 0.074959 0.188600 -0.701772 0.238306 0.222808 -0.606324 0.243877 -0.322005
0.118491 -0.307939 0.209084 0.142312 0.226954 0.082961 0.019602 -0.338341 -0.565366 0.177550
0.095564 0.208765 0.070157 0.019310 0.119207 -0.696807 -0.693994 0.239259 -0.469455 0.157216
0.280117 0.126054 -0.113876 0.073844 -0.843922 0.105874 -0.680275 0.162803 0.170598 0.044577
-1.166741 0.324588 0.070648 -0.197538 -0.068640 -0.730253 -0.235087 0.245212 -0.028577 -0.048213
0.217601 0.038079 0.053996 0.183699 -0.403594 0.152383 0.260346 -0.516263 0.292997 -0.250556
-0.017635 0.294063 -0.013791 -0.083217 0.073766 -0.236774 -1.227491 0.085822 -0.224992 0.218888
0.099308 -0.138934 -0.561779 0.101430 0.081144 0.120782 -0.068325 0.049441 0.009822 0.183331
-0.056542 -0.538193 -0.143278 0.166806 0.373906 0.081647 -0.580606 0.088446 0.225766 0.183171
-0.735367 -0.536620 0.455114 -0.062997 0.227847 0.305006 0.212364 -0.110738 -0.449363 -0.124722
0.241306 0.348801 -0.200108 -0.511024 0.080344 0.156869 0.397803 -0.745823 -0.130610 -0.186668
-0.766202 0.279015 0.201509 0.024706 0.456674 -0.668660 0.060461 0.179657 -0.030900 -0.718057
0.235742 0.011182 0.038101 -0.624340 0.241722 0.131014 0.206388 -0.174559 0.159576 0.210414
-0.024557 0.288987 0.254947 0.026153 0.187726 -1.170789 -0.538225 0.153336 0.092901 0.144389
0.017155 0.445071 -0.547777 -0.315030 0.413272 0.104357 0.450205 0.100512 -0.322223 -0.581549
0.162436 -0.256014 0.046222 0.129582 -0.953487 0.004505 0.074579 0.104804 0.186903 0.112258
-0.756753 0.314822 -0.017647 -0.420243 0.320524 -0.513967 -0.404387 0.293611 -0.354997 0.216811
-0.019995 0.312950 0.164629 0.138914 -0.515439 0.200939 -0.179541 -0.519494 0.200253 0.291425
-0.282546 0.377061 0.409137 0.452965 -0.621978 -0.231312 0.198491 0.242073 -0.553995 -1.153271
-0.414050 -0.322879 -0.272747 0.173671 0.283214 0.156915 -0.536595 -0.042356 0.217430 0.222737
0.273302 0.006919 -0.091269 -0.749266 0.095932 -0.017962 0.348068 -0.300023 0.141009 0.027980
0.265891 0.586861 0.116124 -0.469433 0.223244 0.210289 -0.021328 0.273172 -0.845420 -0.450789
0.406903 0.327244 0.094607 -0.301121 0.160512 -0.564040 -0.154681 0.220634 -0.495049 0.193318
-0.923631 -0.033488 0.019637 0.482858 0.123893 0.365027 -1.181264 0.075910 -0.911340 0.370558
-0.778736 0.281904 -0.005179 -0.043339 0.318065 -0.314337 -0.890221 0.382922 -0.499411 0.320652
0.220986 -0.009451 0.364191 0.337952 -0.480966 -0.395392 -0.880855 0.440338 -0.048484 0.070813
-1.171541 0.553182 0.485947 -0.572541 0.010246 -0.131132 -0.202646 0.095232 -0.420741 -0.066162
-0.262397 0.357149 0.180695 0.330425 0.113772 -0.662412 -0.199509 -0.030872 -0.031123 -0.625634
0.191308 0.242367 -0.220590 0.130729 -0.117736 0.191176 0.537819 -0.459504 -0.425372 -0.476660
0.119034 0.103141 0.130713 -0.018418 0.013066 -0.040518 0.171112 -0.388004 0.018410 -0.662641
0.141392 -0.230918 0.328518 -0.126673 -0.451699 0.152872 0.416098 0.112080 0.014177 -0.949815
-0.015670 0.113073 0.113794 -0.358490 -0.017203 -0.462068 0.349050 0.276592 0.220784 -0.496805
0.321158 -0.835037 0.107856 0.224764 -0.795784 0.017112 0.033970 0.180997 0.035451 0.170532
-0.352232 -0.082103 -0.008188 0.042478 0.215301 0.057528 0.141410 -0.280047 0.135443 0.188329
0.078727 -0.291263 0.026758 0.199533 0.253593 0.089491 -0.160815 0.132934 0.187837 0.203848
-0.518421 0.187798 0.161886 0.094509 0.125721 -0.238074 0.234208 0.245916 0.171762 0.229245
-1.046641 0.352375 0.527794 0.399426 -0.553999 -0.021169 -0.443645 0.319866 -0.525289 -0.488292
0.063339 0.305064 -0.290319 -0.302678 0.386431 0.019371 -0.457621 0.417751 -0.144576 0.312653
0.068068 0.255175 0.325314 0.260664 -0.037425 -0.619074 -0.997325 0.254196 -0.223341 0.014055
-0.425925 0.190208 -0.965092 -0.126275 0.072844 0.163127 0.039049 0.145158 0.040199 0.198510
-0.166994 -0.317694 0.522345 0.432547 -0.630772 -0.220977 -0.899481 0.667860 -0.301041 -0.885277
0.280448 -0.588262 0.225935 0.077604 -0.502292 0.156361 -0.310713 0.269498 0.066648 0.118767
0.192324 -0.093351 0.052801 0.034842 -0.809266 0.072343 -0.374210 -0.032631 0.061227 0.050034
-0.832781 -0.141601 0.053678 0.013909 0.209811 -0.093551 0.124662 -0.365428 0.138683 0.218535
0.196882 0.350351 0.190498 0.141426 0.006107 -0.648170 -0.274673 0.082227 0.100646 0.345272
-0.344878 0.105390 -0.165626 0.174145 -0.244693 0.059848 -0.396684 0.099479 0.240899 0.159623
-0.140037 0.084558 -0.559593 -0.405574 0.267048 0.473624 0.053826 -0.255966 0.077467 0.108226
0.350545 0.019787 -0.306537 -0.631706 0.110594 0.095268 0.164058 -0.567230 0.055226 0.043182
0.378615 -0.387486 -0.241096 0.230255 -0.643994 0.122105 0.208439 -0.704945 -0.257261 -0.003347
0.061145 -0.368823 0.015046 -0.054483 -0.253201 -0.105988 0.069325 -0.303262 0.033060 -0.158004
0.239429 -0.153660 0.104361 0.041718 0.237259 -0.075799 0.146028 -0.297002 -0.691251 0.155273
0.247912 0.269505 -0.284074 -0.509197 0.013473 0.134215 0.403056 0.172569 -0.225868 -0.461439
-0.527868 -0.090955 0.447963 0.479745 -0.159460 -0.101220 -0.541523 0.496475 -0.012857 -0.671261
0.012532 0.074035 -0.158236 -0.943541 0.149022 -0.086786 0.243668 -0.208881 -0.066112 -0.342564
0.119558 -0.539995 -0.083006 -0.123489 0.058965 -0.072632 -0.056345 -0.040873 0.043682 0.075971
-0.122925 0.018298 -0.803825 0.252789 -0.071849 0.332877 0.076489 -0.970535 0.017323 0.033086
0.306871 0.449591 -0.723197 -0.006950 0.339068 0.210862 0.622553 -0.118471 -0.261511 -0.476140
-0.299096 -0.803250 -1.025502 0.002762 -0.492328 0.573711 0.690469 0.074750 -0.065206 -0.073922
0.149343 -0.101796 0.281520 -0.574491 0.334046 -0.097498 0.096628 -0.023679 -0.439861 0.052844
-0.547307 0.159152 0.347235 -0.110150 0.010752 -0.169278 0.171328 0.384865 0.037420 -0.917042
0.276805 -0.152687 0.231496 0.071534 -1.064572 0.077649 -0.047220 -0.013741 -0.207470 -0.324314
0.177434 0.012881 0.254945 -0.151381 -0.044296 -0.205946 0.263977 0.003480 0.220065 -1.043661
-1.024694 0.220552 0.220816 0.105500 0.092648 0.387479 0.184894 -0.658126 0.306134 -0.672714
-0.177347 -0.196316 -0.168928 -0.378943 0.291172 0.138030 0.191176 0.018485 -0.705246 -0.000785
0.047463 0.128636 -0.050135 -0.503328 0.251396 0.056206 0.186271 -0.504323 0.099951 -0.599323
0.123743 0.071713 -0.157458 0.235848 0.084078 0.181610 -0.590659 -0.100006 0.213698 0.278018
-0.363494 -0.611742 -0.142561 0.471026 -0.166342 0.448989 -0.758193 -0.628704 -0.428161 0.354230
-1.229339 0.287454 0.102975 -0.412446 0.306601 -0.323598 -0.358248 0.251835 0.097395 -0.043384
0.098923 -0.038772 0.100227 0.123433 -0.499189 0.151534 0.067205 -0.434085 0.255197 -0.296765
0.425720 0.203091 0.240375 -0.502215 0.072933 -0.267747 0.274605 -0.415236 0.076382 -0.392097
-0.437894 0.327433 0.088890 0.072740 0.373321 -0.609614 0.050639 0.166212 -0.067628 -0.484321
-0.945642 -0.728188 -0.681983 0.186687 -0.399551 0.670379 0.631252 -0.128734 0.146406 0.024725
-0.687856 -0.785350 -0.269157 0.110523 -0.607141 0.465834 0.539528 -0.033570 0.176174 -0.332134
0.222138 -0.812098 0.125665 0.159569 -0.779695 0.080509 0.075499 0.255687 0.073088 0.168375
-0.260063 0.270814 0.541455 0.472893 -0.482196 -0.370427 -0.584373 0.476328 -0.736351 -0.988065
-0.590241 -0.334917 -0.228453 0.170991 -0.677872 0.459938 -0.112078 0.297998 0.138911 -0.051501
-0.532329 0.179133 -0.057351 0.114788 -0.147138 0.277130 -0.570613 -0.373636 0.240253 0.100497
0.343085 -0.410571 -0.123948 0.103430 -0.700308 -0.006145 -0.487222 0.486551 -0.361868 0.080442
-0.234868 0.206083 0.377591 0.278435 -0.689517 -0.198980 -0.979484 0.410670 0.187348 -0.342503
-0.204267 0.329710 0.154988 0.040850 0.403432 -0.823068 -0.027026 0.208849 -0.092875 -0.486311
-0.069080 0.099570 -0.467221 -0.223409 0.256937 -0.388158 -0.213500 0.257799 -0.518213 0.333690
0.210205 -0.115523 -0.594445 -0.109346 0.163303 0.136041 0.227913 0.069597 -0.062263 0.155383
0.240217 -0.198753 -0.036828 -0.540375 0.298702 0.033815 0.295503 -0.302574 0.225953 -0.045828
0.331290 0.043167 -0.287155 -0.193940 -0.545493 0.054334 0.099631 0.187700 -0.701706 -0.198084
-0.508983 0.143317 0.188206 -0.002047 -0.307569 -0.139321 -0.019886 -0.238242 0.204430 0.246095
0.152567 -0.818685 -0.164506 0.103272 -0.043344 0.125461 0.053307 0.142810 0.027970 0.134191
0.095360 -0.898927 -0.115057 -0.665119 0.213919 0.013562 0.144174 -0.179625 -0.065406 0.015665
-0.667058 -0.323074 -0.012678 0.425748 0.100958 0.474471 -1.149366 -0.328057 -0.830289 0.437097
0.165011 0.258348 -0.302819 -0.029153 0.097171 -0.125167 -0.600676 0.240822 -0.218668 0.240710
0.424152 0.209664 -0.183284 -0.587047 0.065897 -0.165372 0.480189 -0.047971 0.173043 -0.279226
0.216123 -0.532740 -0.051270 -0.043160 -0.599158 -0.142929 0.176477 0.302808 -0.005568 0.200942
-0.134069 0.290862 0.138377 0.136258 -0.234483 -0.859162 -0.796593 0.067542 -0.167309 0.184739
-0.983320 0.260315 0.158621 -0.164152 0.181191 -0.329225 -0.752426 0.133860 -0.521335 0.137266
-0.362624 -0.057981 -0.759070 -0.065825 -0.028393 0.243922 0.104118 0.157518 0.210370 0.159868
