-0.060861 -0.021855 -0.006641 -0.308029 0.143203 -0.172816 -0.046897 0.137803 0.170828 -0.213969 0.187646 0.234704 0.110446 -0.277582 -0.063285 0.031484 0.228570 -0.194531 -0.060893 -0.305834 0.061604 0.135674 -0.093039 0.248976 -0.062542 -0.123772 0.192020 0.029922 0.145423 0.049286 0.173074 0.030318 0.032442 -0.094528 -0.185304 -0.063321 -0.230370 0.104541 0.064876 0.236999 -0.153593 -0.052329 0.029328 0.046396 -0.136272 0.290344 0.021969 -0.103082 0.121010 -0.080931 -0.147548 -0.154422 0.224265 -0.086712 -0.139156 0.207141 -0.036939 0.015212 -0.118038 -0.151758 -0.036594 -0.021768 0.183649 0.350596 0.280398 0.069801 -0.017710 0.284223 -0.384666 0.496384 0.089259 0.135012 -0.180961 0.241971 0.123637 -0.097005 -0.073105 -0.064684 -0.109447 -0.229991 -0.189027 0.101449 -0.185809 0.168201 0.212835 0.113569 0.053947 -0.096705 -0.069756 0.070587 0.016833 0.080418 0.083632 0.213808 0.039715 0.142581 -0.113861 0.239269 0.041068 -0.257854 -0.105305 0.028646 -0.111107 0.253738 0.364815 0.004171 0.049084 -0.034862 0.108458 -0.087994 -0.099135 -0.211033 0.062892 0.233577 -0.065418 0.250247 0.097401 0.155165 -0.045966 0.062726 0.251207 -0.148098 -0.422804 0.106881 0.386673 0.039171 0.109188 0.091644
0.004566 -0.134494 -0.063985 -0.434818 0.157619 -0.115132 -0.055232 0.098612 0.235557 -0.281459 0.118975 0.417950 0.140259 -0.251353 -0.084192 -0.001660 0.199818 -0.075209 -0.018077 -0.344781 -0.010684 0.139861 -0.040374 0.207299 -0.109448 -0.149834 0.045153 0.018226 0.100978 -0.027249 0.153545 0.022029 0.128523 -0.146066 -0.164591 0.057023 -0.353208 0.093382 0.205374 0.244732 -0.258233 -0.141263 0.073588 0.058101 0.021401 0.266646 0.018841 -0.056517 0.121514 -0.057640 -0.201112 -0.116501 0.168662 -0.016589 -0.167281 0.082303 -0.136947 0.109116 -0.159332 -0.115996 -0.035101 0.002964 0.274615 0.346412 0.209112 0.229162 -0.072123 0.117038 -0.388729 0.425569 0.059066 0.046943 -0.035647 0.119761 0.207759 -0.187784 -0.030276 0.048020 -0.113297 -0.183182 -0.126615 -0.024497 -0.101533 0.156113 0.089409 0.046951 0.098865 -0.189638 -0.119476 -0.055500 0.065011 0.052089 0.071930 0.227482 -0.100292 0.140364 -0.028237 0.197184 -0.039061 -0.130169 -0.186069 -0.079125 0.012294 0.316191 0.323226 0.034426 0.029156 0.023802 0.262288 -0.072093 -0.077309 -0.232238 -0.005347 0.271109 -0.181293 0.209417 0.154206 0.106171 -0.050006 -0.001828 0.123882 -0.033188 -0.439543 0.028218 0.321605 0.024643 0.117552 0.026901
0.083234 -0.122733 0.059992 -0.460251 0.135972 -0.113050 -0.216427 0.236290 0.158732 -0.230197 0.109669 0.423620 0.153033 -0.196083 -0.177398 0.016143 0.304942 0.019143 -0.078289 -0.400520 -0.101888 0.041004 -0.074777 0.226944 0.038214 -0.052466 0.057054 -0.169731 0.173261 -0.033692 0.062431 0.088047 0.208995 -0.060948 -0.114637 0.159002 -0.319624 -0.018921 0.076769 0.294724 -0.332937 -0.184016 0.015508 0.121731 -0.030026 0.013019 0.020335 -0.185112 0.004211 0.199557 -0.062530 0.022491 0.273393 -0.161095 -0.106984 0.064038 -0.105620 0.083865 -0.258384 -0.178766 -0.124473 0.015024 0.439016 0.356181 0.429662 0.102353 -0.060128 0.153060 -0.381333 0.416005 0.085805 -0.038902 -0.046932 0.095249 0.209976 -0.245130 -0.045193 -0.032284 -0.057030 -0.164330 -0.232601 0.097504 0.069627 0.216295 0.153476 0.060137 0.148481 -0.005653 -0.205073 -0.178449 0.017079 0.097581 -0.024024 0.240614 -0.146929 0.068045 0.030375 0.192104 -0.057977 -0.214708 -0.217690 -0.096237 0.049302 0.296090 0.225683 -0.012987 0.125829 -0.021620 0.218683 -0.206482 -0.064365 -0.277544 0.063315 0.134855 -0.328408 0.260629 0.310119 0.211003 -0.083676 -0.015416 0.253274 -0.051925 -0.432183 0.066020 0.262818 0.068637 -0.033743 -0.063189
0.279907 0.016580 0.052517 -0.454870 -0.002965 -0.037244 -0.316274 0.201399 0.201834 -0.154390 0.085761 0.524198 0.149143 -0.293162 -0.108492 0.272898 0.291821 0.001035 -0.008301 -0.525741 -0.179697 0.100968 0.043551 0.294569 0.031952 -0.164863 0.084557 -0.091868 -0.050327 -0.179633 -0.143977 0.082566 0.248001 0.158565 -0.159741 0.225674 -0.462363 -0.110385 -0.064443 0.483062 -0.359726 -0.335465 -0.017516 0.081658 -0.081409 -0.141493 -0.102490 -0.325041 0.192629 0.277591 0.064581 0.113907 0.413667 -0.315688 -0.119126 -0.000058 -0.267893 -0.014320 -0.479401 -0.221323 0.014007 0.075465 0.540364 0.595865 0.497518 0.246201 0.092975 0.261539 -0.440889 0.451309 0.176212 -0.167701 -0.127265 -0.202234 0.128538 -0.220294 0.126393 0.124944 -0.120445 -0.203846 -0.268884 -0.018271 0.320451 0.424713 0.217563 0.084111 0.060014 0.040378 -0.232921 -0.223820 -0.175084 0.007487 -0.160847 0.332203 0.109018 0.191279 -0.013362 0.049035 0.064716 -0.364358 -0.099509 -0.182479 0.299008 0.250499 0.117430 -0.039007 0.093951 -0.205890 0.262899 -0.320590 -0.094286 -0.371902 0.031559 -0.056108 -0.303576 0.211681 0.225871 0.124406 0.141692 -0.069027 0.190577 0.097351 -0.481869 0.312113 0.339422 0.116409 -0.075419 -0.136369
0.324061 0.032373 -0.028058 -0.292083 -0.018980 0.089126 -0.411448 0.149029 0.096750 -0.193878 -0.104602 0.529016 0.065703 -0.117234 0.193780 0.207213 0.321765 0.096338 0.073101 -0.480893 -0.162390 0.136101 0.032365 0.299585 0.109715 -0.062203 0.043768 -0.067226 -0.134580 0.079678 -0.270035 0.046340 0.426763 0.399991 -0.076578 0.296008 -0.523341 -0.122429 -0.199086 0.465633 -0.457854 -0.253794 -0.065492 0.018398 -0.037632 -0.103348 -0.121784 -0.438249 0.295514 0.363229 0.174176 0.118490 0.609891 -0.371117 -0.000344 -0.179076 -0.117951 -0.039481 -0.534866 -0.128385 -0.095568 0.216678 0.707160 0.578170 0.548631 0.192755 0.223172 0.323991 -0.462491 0.577178 0.272768 -0.270799 -0.040061 -0.184062 0.196971 -0.154606 0.080032 0.071678 -0.068267 -0.159404 -0.144801 -0.011403 0.186048 0.492963 0.372991 -0.009550 0.123288 0.349223 -0.151846 -0.110368 -0.143127 0.090077 -0.111650 0.424480 0.074053 0.265628 -0.099505 -0.080026 0.035387 -0.473952 -0.229178 -0.221698 0.300267 0.180419 0.030403 -0.044346 0.211017 -0.175824 0.247414 -0.266095 -0.070460 -0.352263 0.087322 -0.161742 -0.171732 0.108541 0.139606 0.110319 0.233742 -0.084772 0.118296 0.032498 -0.504703 0.352652 0.341524 0.119379 -0.101546 -0.104906
0.192424 -0.067253 -0.010414 -0.262907 0.028168 0.131738 -0.395238 0.167864 -0.030887 -0.172626 -0.097975 0.437247 0.075484 -0.230574 0.093181 0.044619 0.146181 0.103498 0.017090 -0.243525 -0.201597 0.038248 -0.017612 0.251110 0.119200 -0.115374 0.008224 -0.066221 -0.088729 -0.024004 -0.230593 0.064643 0.448039 0.277374 -0.093159 0.344178 -0.523636 -0.053037 -0.165299 0.553905 -0.441986 -0.249919 -0.132692 -0.042519 -0.062815 -0.165660 -0.009442 -0.307048 0.288628 0.377153 0.110463 0.023667 0.598323 -0.235572 -0.002346 -0.209428 0.012556 -0.111192 -0.479561 -0.027921 -0.195853 0.121207 0.550353 0.420845 0.539827 0.091409 0.228121 0.439936 -0.469665 0.570675 0.142493 -0.263540 0.022333 -0.245206 0.163393 -0.121728 0.048830 0.030270 -0.175045 -0.223518 -0.117151 0.043254 0.355583 0.435562 0.339619 0.113304 0.224249 0.309583 -0.152717 -0.110212 -0.023763 0.033361 -0.251157 0.231049 0.110008 0.251664 0.062376 0.057302 -0.029917 -0.544460 -0.336505 -0.117831 0.189596 0.086032 0.133152 -0.169609 0.057601 -0.003855 0.138463 -0.211483 -0.167452 -0.371042 0.163487 -0.254556 -0.308837 0.155139 -0.119221 0.069059 0.326475 -0.074972 -0.024569 0.044091 -0.538572 0.382349 0.393646 0.219453 -0.006404 -0.262728
0.089038 -0.135145 -0.020670 -0.241786 0.023288 0.104694 -0.428620 0.168647 -0.185618 -0.017959 0.079732 0.217034 0.037937 -0.113277 0.030600 -0.076247 -0.068773 0.091648 0.036224 -0.217497 -0.200617 -0.047250 -0.016244 0.167629 -0.052713 -0.105906 0.120410 -0.044865 0.128494 -0.056439 -0.097756 0.138246 0.109000 0.262606 -0.095272 0.192783 -0.300108 0.071687 -0.250181 0.269085 -0.282170 -0.102405 -0.135653 0.096974 -0.048068 -0.290224 -0.003586 -0.199968 0.329170 0.232946 0.111619 0.050867 0.543987 -0.168048 0.140125 -0.285200 0.004838 -0.053013 -0.188482 0.119748 -0.269797 0.006386 0.254591 0.100416 0.310508 0.171179 0.117879 0.075114 -0.398789 0.525069 0.110515 -0.127268 -0.054075 -0.130354 0.215826 -0.099154 -0.128706 -0.234468 -0.048098 -0.156614 -0.146998 0.170587 0.273668 0.120882 0.239056 0.045866 0.235947 0.147154 -0.004989 -0.063935 0.044846 0.081819 -0.055940 0.174646 -0.093268 0.198163 -0.074731 -0.045916 -0.008017 -0.435047 -0.100702 -0.051141 -0.052678 -0.040484 0.132772 -0.001923 0.075216 0.148535 0.125063 -0.015406 -0.140793 -0.233752 0.064968 -0.179188 -0.128005 0.167110 -0.140163 0.113397 0.075499 0.156969 -0.053099 0.010089 -0.407294 0.254714 0.405679 0.187203 0.040826 -0.185093
0.135377 -0.159173 0.062532 -0.250559 0.114170 0.138464 -0.368639 -0.044910 0.045333 -0.026080 0.089047 0.230369 0.013953 -0.278922 -0.048686 -0.097859 -0.177748 0.087292 0.022409 -0.076463 -0.108066 0.037788 0.028948 -0.003192 -0.023362 -0.123861 0.165962 -0.080272 0.158798 -0.050833 -0.055066 0.085384 0.000194 0.039159 -0.140233 0.001059 -0.180816 0.071902 -0.063221 0.138364 -0.225182 -0.109498 -0.030493 0.078528 0.045650 -0.094748 -0.062990 -0.162480 0.318590 0.130668 -0.033356 0.095258 0.315993 0.007309 -0.013181 -0.084844 -0.033740 -0.082103 -0.159749 0.076117 -0.114573 0.061406 0.029578 0.051861 0.241410 0.067207 -0.007708 -0.051339 -0.225868 0.383555 0.002338 -0.008410 -0.034154 -0.210438 0.207519 -0.191317 -0.195862 -0.209252 -0.115037 -0.077428 -0.148194 0.094764 0.104305 0.034657 0.070478 0.072474 0.321235 -0.187308 -0.039847 0.119339 -0.046707 0.099132 -0.079997 -0.059475 0.036455 0.040257 -0.100761 0.015330 -0.063314 -0.251102 -0.103962 0.133938 -0.189406 0.081248 0.238882 -0.121411 0.030810 0.028575 0.028318 -0.051400 -0.057026 -0.224585 0.072316 -0.103550 -0.144588 0.163187 -0.106972 0.184827 0.148584 -0.013325 -0.059996 0.088676 -0.208225 0.212033 0.373891 0.288934 0.104356 -0.126976
-0.043530 -0.072035 0.065444 -0.357847 0.005561 0.152320 -0.300070 -0.014955 -0.011550 -0.118593 -0.079146 0.277689 -0.024897 -0.255224 -0.101971 0.003744 -0.204578 -0.073682 0.011168 -0.049716 -0.266578 -0.097071 -0.011312 -0.071317 -0.232997 -0.004991 -0.009295 -0.052681 0.069446 -0.066368 0.049495 -0.017038 0.102407 -0.092244 0.004277 -0.010456 -0.139497 0.162669 0.064283 0.004716 -0.164315 -0.038936 -0.058408 0.041020 -0.061680 -0.011728 -0.056707 -0.113436 0.383938 0.077596 0.113399 0.001161 0.147808 -0.101815 -0.021359 -0.101177 0.006729 -0.066258 0.002457 0.135806 -0.012862 0.017213 0.012800 0.115350 0.209621 0.195827 -0.033160 -0.105392 -0.194149 0.230788 0.082284 0.029471 0.095022 -0.113948 0.218672 -0.160817 -0.204538 -0.323398 -0.121895 -0.071046 -0.177492 0.058932 0.089180 -0.150165 0.173177 0.047775 0.353946 -0.259071 0.014509 -0.094936 -0.011940 -0.050152 -0.086471 0.009305 -0.005854 0.038648 0.012624 -0.059874 -0.005392 -0.209228 -0.301604 0.082300 -0.111294 -0.094093 0.220120 -0.085211 -0.085488 -0.043240 0.018714 -0.193936 -0.210813 -0.145367 0.096339 -0.124832 -0.130697 -0.004950 -0.150514 0.149530 0.262599 0.003246 -0.164110 -0.010800 -0.299752 0.199219 0.298455 0.334535 -0.026795 -0.114560
0.080783 -0.098145 -0.035864 -0.280337 0.018088 0.142285 -0.229399 -0.133176 -0.074301 -0.176009 -0.026830 0.392922 0.003383 -0.181539 -0.204098 0.000786 -0.276678 0.048243 -0.021429 -0.040798 -0.167042 -0.024209 0.160266 0.014124 -0.137407 0.019151 -0.062806 -0.021170 0.067282 -0.167951 0.178025 -0.105791 0.227435 0.035415 -0.030096 0.076501 -0.228100 -0.104846 0.062944 0.077754 -0.211897 -0.161653 -0.064113 0.044192 -0.087547 -0.163466 -0.104938 -0.028198 0.285040 0.064455 0.017984 0.070384 0.080520 -0.172672 -0.079719 -0.103476 -0.084204 -0.089554 -0.049875 0.104081 -0.076124 0.071263 0.102321 0.126490 0.391918 0.183252 0.010724 0.084417 -0.240885 0.361812 0.079862 -0.069859 0.094700 -0.252232 0.128417 -0.169856 -0.043436 -0.163464 -0.245562 -0.130741 -0.345363 0.027271 -0.054979 -0.001203 0.106850 -0.013069 0.323018 -0.191109 -0.162166 -0.147824 -0.083270 -0.024356 -0.280330 0.086905 0.064075 -0.020587 0.078114 -0.061114 0.077705 -0.329850 -0.460332 -0.014393 -0.054324 -0.132904 0.226278 -0.077880 -0.084478 0.057851 -0.008194 -0.077756 -0.252281 0.024975 -0.059287 -0.010829 -0.257327 0.035119 -0.055865 0.039511 0.288592 -0.140970 -0.107996 -0.033451 -0.317947 0.263786 0.434676 0.234259 -0.126436 -0.059214
0.053199 0.100602 -0.010629 -0.445088 -0.124120 0.058077 -0.292552 -0.085978 -0.129237 -0.023765 -0.105550 0.431442 0.013660 -0.113909 -0.203029 0.087856 -0.228334 0.085256 -0.076760 -0.145294 -0.256792 0.057383 0.155004 0.047761 -0.141745 0.149268 0.066764 -0.039419 0.070741 -0.101500 0.143466 -0.143115 0.176168 0.160297 -0.001452 0.207612 -0.260765 -0.155355 -0.061847 0.219614 -0.280798 -0.163301 -0.082740 0.066113 -0.263329 -0.141107 -0.240612 0.006398 0.351100 0.283354 -0.026332 0.142802 0.215603 -0.126670 0.053266 0.009452 -0.065144 -0.176930 -0.208388 0.004391 -0.161148 0.185530 0.210429 0.137490 0.320370 0.209433 -0.067357 0.019196 -0.303587 0.311647 -0.001887 -0.112759 0.152345 -0.241554 0.175541 -0.303225 -0.109354 -0.132668 -0.211095 -0.188615 -0.380045 -0.024610 0.115371 -0.078913 0.107583 -0.227621 0.302894 -0.113373 -0.215053 -0.202144 -0.154794 0.018784 -0.193496 0.024539 0.030515 0.075686 0.194100 -0.143424 -0.024772 -0.412762 -0.439990 -0.021461 0.085226 -0.227730 0.160271 -0.034347 0.025005 -0.077187 0.027954 -0.145886 -0.211311 -0.030857 -0.095297 -0.054032 -0.247783 0.159094 0.022285 -0.008453 0.212591 -0.075668 -0.021886 0.032016 -0.468193 0.362278 0.446753 0.213257 -0.064783 -0.017099
0.107406 0.068697 -0.054132 -0.536568 -0.158487 0.091836 -0.380504 0.027708 -0.102083 0.040311 -0.149449 0.437785 -0.116766 -0.028254 -0.145897 0.150368 -0.178119 0.097748 -0.080834 -0.227840 -0.404189 0.010747 0.057724 0.238283 -0.268843 0.110809 0.164028 -0.069723 0.085281 -0.151107 0.359526 -0.187500 0.303480 0.246589 0.110789 0.273102 -0.266714 -0.209011 -0.279323 0.262940 -0.315974 -0.107689 -0.195101 0.178260 -0.492971 -0.103476 -0.235507 -0.016788 0.359383 0.209582 -0.013329 0.097751 0.293160 -0.201559 0.001832 0.030297 -0.037862 -0.086361 -0.228241 -0.008432 -0.170622 0.138437 0.227774 0.328969 0.463350 0.176186 -0.130687 0.197152 -0.507357 0.277801 -0.009185 -0.027913 0.238052 -0.362919 0.147554 -0.265060 -0.058064 -0.087046 -0.349850 -0.102751 -0.298739 -0.147768 0.169076 0.072551 0.023117 -0.248492 0.088674 0.026545 -0.274621 -0.163270 -0.088298 0.017352 -0.232532 -0.079640 0.026084 0.101998 0.131677 -0.126598 -0.033585 -0.471132 -0.468974 0.008531 0.193784 -0.142666 0.097842 -0.001322 0.002630 -0.211111 0.079178 -0.224432 -0.251127 -0.034490 -0.137318 -0.086696 -0.226820 0.026880 0.045732 -0.010173 0.293760 -0.041033 -0.186708 0.056644 -0.346944 0.267252 0.350029 0.195307 -0.081217 0.037819
0.091565 0.215139 -0.177898 -0.615509 -0.196738 0.014071 -0.412787 0.126833 -0.164979 0.019552 -0.087229 0.523923 -0.077559 -0.005034 -0.161608 0.144381 -0.198145 0.050452 0.001994 -0.153471 -0.273911 0.060166 0.132343 0.296146 -0.348964 -0.039832 0.032827 -0.144922 0.065467 -0.111404 0.198189 -0.086208 0.281867 0.362855 0.119472 0.309656 -0.317717 -0.277165 -0.327386 0.429280 -0.370753 -0.149405 -0.218955 0.102045 -0.503405 -0.218230 -0.336063 0.021057 0.207318 0.173983 -0.129512 0.232407 0.227607 -0.078303 -0.008746 0.094060 -0.179573 -0.031103 -0.097741 0.093982 -0.085730 0.019715 0.360340 0.311483 0.269549 0.160417 -0.027714 0.158649 -0.446650 0.221176 -0.000877 -0.050894 0.330708 -0.381403 0.151406 -0.296273 0.025969 -0.080501 -0.294841 -0.029680 -0.230489 -0.264404 0.137652 0.134724 0.046946 -0.273723 -0.059912 0.152796 -0.240645 -0.175224 0.168142 -0.025180 -0.115366 0.065597 0.022618 0.178204 0.206148 -0.125219 -0.058222 -0.486312 -0.285384 -0.059974 0.196848 -0.101727 0.148890 0.035521 0.126818 -0.123865 0.089501 -0.251144 -0.088818 0.045276 -0.074349 -0.004819 -0.157279 0.057202 -0.018922 0.007476 0.348238 -0.027750 -0.169969 0.108210 -0.382783 0.096958 0.106637 0.267953 -0.213661 0.022308
0.082897 0.130160 -0.162947 -0.508377 -0.255325 -0.060554 -0.443230 0.107043 -0.107997 -0.051204 -0.075743 0.441439 -0.124861 -0.008165 -0.129278 0.089976 -0.148567 -0.049492 0.075466 -0.280263 -0.222052 0.010611 0.000095 0.222757 -0.319856 0.071814 0.166186 -0.132334 -0.013792 -0.109889 0.049282 -0.152716 0.187285 0.394907 -0.009001 0.274026 -0.241667 -0.397526 -0.370238 0.366424 -0.284493 -0.115988 -0.252546 0.018943 -0.260350 -0.625749 -0.245909 0.057707 -0.062144 0.137499 -0.100609 0.146551 0.174250 -0.073050 0.144899 0.073388 -0.090352 0.087629 -0.074001 0.162527 0.002617 -0.187338 0.356818 0.320887 0.249389 0.029183 -0.075174 0.199809 -0.252877 0.082525 -0.052084 -0.038568 0.229379 -0.322470 0.182828 -0.273898 0.038050 -0.089656 -0.229414 0.073756 -0.179359 -0.271301 0.170343 0.146984 -0.017540 -0.284265 -0.061732 0.298839 -0.254919 -0.150502 0.319758 0.033995 -0.012660 0.014147 0.103360 0.230266 0.190801 -0.149033 -0.201710 -0.361482 -0.380968 0.006963 0.260726 -0.041226 0.166911 0.044335 0.140987 -0.077333 0.117650 -0.175283 -0.179634 0.059083 0.006323 0.127055 -0.234038 -0.022147 -0.002137 -0.012339 0.384384 0.051119 -0.028049 0.095508 -0.289289 -0.035940 -0.073659 0.121035 -0.139940 -0.056883
0.006387 0.020226 -0.133218 -0.501341 -0.402940 -0.108532 -0.408558 0.044318 -0.120164 -0.031806 0.098744 0.412325 -0.099235 -0.051792 -0.088837 0.171528 -0.097948 -0.034995 -0.044777 -0.275060 -0.182618 0.022858 0.046090 0.165183 -0.185511 0.196697 0.109161 -0.060102 -0.031033 -0.029147 -0.202513 -0.099129 0.294002 0.374153 0.122139 0.193807 -0.182841 -0.394520 -0.356842 0.218918 -0.352129 -0.079171 -0.266125 0.072466 -0.079940 -0.579112 -0.247372 0.058450 -0.409314 -0.104045 -0.072674 0.236985 0.139529 0.004624 0.194761 0.170888 -0.002201 0.053035 -0.089913 0.149625 0.010582 -0.197964 0.269417 0.348606 0.123863 -0.024312 -0.071069 0.280200 -0.094259 0.048362 -0.163494 -0.023274 0.365922 -0.310422 0.070020 -0.279685 0.126283 -0.040859 -0.217705 -0.035544 0.000458 -0.356616 0.166822 -0.039207 0.000524 -0.307846 -0.180139 0.207148 -0.166627 -0.097421 0.442666 0.006819 0.083657 0.083584 0.102623 0.286867 0.102053 -0.017283 -0.177156 -0.358030 -0.350620 -0.069528 0.291120 -0.058485 0.079610 0.074865 0.117535 -0.117220 0.136177 -0.133034 -0.189724 0.022940 -0.016503 0.189681 -0.099034 0.095109 -0.189448 0.025865 0.262544 0.025294 -0.031515 0.130516 -0.293244 0.022545 -0.117291 0.067892 -0.216127 0.066092
-0.036674 0.044609 -0.038273 -0.597008 -0.438509 -0.140999 -0.153967 0.066210 -0.139937 -0.129426 0.135273 0.377766 0.073844 -0.001379 -0.099227 -0.039902 -0.115940 -0.030379 0.046081 -0.337324 -0.029704 -0.037781 -0.032801 0.183895 -0.209103 0.094286 0.100483 -0.101881 -0.064693 -0.201240 -0.450331 -0.137075 0.256134 0.221658 0.077101 0.281936 -0.168196 -0.366853 -0.267311 0.207919 -0.331152 0.006920 -0.277911 -0.065470 0.091208 -0.474753 -0.162813 -0.045526 -0.384434 -0.241436 -0.085251 0.176690 0.221825 0.090432 0.240668 0.160684 0.011523 0.096730 -0.072395 0.020947 0.021363 -0.257127 0.151659 0.246843 0.249904 -0.011132 -0.049470 0.251399 -0.083174 -0.013256 -0.224906 0.025217 0.241214 -0.271887 0.171080 -0.277271 0.171839 -0.178666 -0.275317 0.043093 0.064120 -0.123624 0.144863 0.036222 -0.023919 -0.326369 -0.207762 0.165175 -0.172299 -0.010109 0.408577 0.050053 0.077907 0.013830 -0.062675 0.288696 0.057163 -0.045136 -0.087935 -0.325813 -0.149883 -0.041256 0.267651 0.013977 -0.038691 -0.006614 0.167389 -0.202846 0.157874 -0.191810 -0.288292 -0.025478 -0.056840 0.185193 -0.199529 0.040326 -0.017532 -0.009238 0.138085 -0.019237 0.155931 0.129082 -0.214862 0.044150 -0.138614 -0.057909 -0.203460 0.116701
-0.086599 0.112167 0.016515 -0.538405 -0.412086 -0.067246 -0.003845 0.043802 -0.025984 -0.072894 0.062664 0.322717 0.068201 -0.043400 0.022920 -0.104099 -0.190410 -0.004240 0.050856 -0.321691 -0.062858 0.009470 -0.106283 0.153259 -0.206191 0.027185 0.229171 -0.031142 -0.118677 -0.216702 -0.590895 0.084840 0.065369 0.085624 0.039968 0.142386 -0.067582 -0.365404 -0.166091 0.143965 -0.302511 0.061805 -0.180917 -0.010624 0.214182 -0.290140 -0.065002 -0.169895 -0.255129 -0.181073 -0.088894 0.331936 0.187083 0.128302 0.295252 0.262158 0.085445 -0.002442 -0.099290 0.024787 0.010923 -0.309569 0.206403 0.234282 0.232311 -0.039599 -0.086288 0.151772 -0.029710 -0.088753 -0.060595 0.038896 0.158148 -0.135063 0.016275 -0.240628 0.086146 -0.107543 -0.344203 0.076008 0.260883 0.016622 0.048288 0.003794 -0.062076 -0.131926 -0.278005 0.205418 -0.096691 0.003041 0.295643 0.125239 0.099146 -0.052221 0.055183 0.203535 -0.072656 0.057513 0.053895 -0.219811 -0.075685 -0.140006 0.281989 0.010122 -0.116359 0.107844 0.053266 -0.220977 0.075209 -0.192305 -0.261065 -0.074759 -0.091563 0.197281 -0.072905 0.098751 0.009962 0.000365 -0.049297 -0.109256 0.075037 0.087478 -0.152664 -0.082125 -0.099230 -0.159887 -0.203911 0.088685
-0.087739 0.110480 -0.027301 -0.476199 -0.360283 -0.144648 0.017053 0.017597 -0.121498 -0.068680 0.025571 0.144518 0.127746 0.028372 -0.045982 -0.177471 -0.137611 -0.115006 -0.050883 -0.337321 -0.063212 -0.073400 -0.058680 0.142454 -0.178946 0.001301 0.159607 -0.032568 -0.093557 -0.051314 -0.194693 0.039752 0.088929 0.031593 0.039699 0.151760 0.052949 -0.306122 -0.275162 0.076250 -0.308882 0.106094 -0.197740 0.022908 0.189824 -0.207010 0.069677 -0.091674 -0.123368 -0.169730 -0.048576 0.304793 0.029536 0.160807 0.225454 0.123950 -0.076230 0.018765 -0.212424 -0.196689 -0.025896 -0.380292 0.235935 0.131759 0.132803 -0.001060 -0.012928 0.046075 0.007444 -0.039166 -0.069600 -0.008072 0.029483 -0.219433 0.065243 -0.176594 0.091424 -0.122813 -0.217755 0.050153 0.316319 0.181107 0.039734 0.013847 -0.065435 -0.108852 -0.144544 0.055129 0.003371 -0.076301 0.109886 0.131859 0.166337 -0.223358 -0.069266 0.126168 -0.053071 0.044645 0.139701 -0.190301 -0.036323 -0.157460 0.224525 0.018185 -0.181720 0.215453 0.101848 -0.279592 0.048216 -0.145467 -0.152915 -0.014527 -0.177229 0.022131 0.001243 0.134339 0.065778 -0.089635 -0.147641 -0.086688 0.115070 0.075763 -0.281718 -0.005931 -0.078215 -0.205100 -0.215913 0.044517
-0.122432 0.029942 0.187400 -0.296263 -0.312060 -0.068671 0.051504 0.097930 -0.045405 -0.062179 0.122635 0.173483 0.145586 0.065395 -0.128360 -0.307087 -0.188351 -0.041220 -0.012557 -0.118091 0.043844 -0.139374 -0.028393 0.112248 -0.230276 0.137173 0.155655 0.023590 -0.081110 -0.079756 -0.062424 0.106593 0.201768 0.010966 0.033880 0.043891 -0.021039 -0.228054 -0.171915 0.036796 -0.278516 0.125402 -0.056502 0.091725 0.227709 -0.122754 0.096968 -0.212218 -0.062857 -0.142321 -0.137533 0.296286 0.017835 0.154328 0.044718 0.073909 -0.157827 0.022095 -0.097589 -0.154226 0.048315 -0.471138 0.105754 0.134368 0.111833 -0.045861 0.035788 0.191061 0.143715 -0.073774 0.040293 -0.025552 -0.013558 -0.100718 -0.050286 -0.112839 0.156075 -0.101951 -0.152349 0.202258 0.300101 0.183595 -0.048462 0.013525 -0.082751 -0.007372 -0.077585 -0.046388 0.138682 -0.047358 -0.090821 0.192834 0.092553 -0.362175 -0.180279 0.061528 0.007633 0.064876 0.205634 -0.123794 -0.061837 -0.031080 0.267412 0.116194 -0.150463 0.217351 0.031085 -0.286200 -0.009300 -0.153355 -0.089309 0.016123 -0.071575 -0.022499 -0.042163 0.042914 0.076785 0.038887 -0.093154 -0.087389 0.085957 0.114833 -0.266905 -0.069112 -0.135886 -0.101138 -0.170136 0.041390
-0.136908 0.219514 0.212493 -0.321566 -0.173797 -0.154133 0.138656 -0.044419 -0.129268 -0.039351 0.078669 0.062600 0.080110 0.227156 -0.097718 -0.279330 -0.015742 0.063119 -0.057606 -0.163594 0.022219 -0.067915 -0.062027 0.094851 -0.169671 0.221232 0.202763 -0.079222 -0.115921 -0.136007 0.051591 0.064089 0.076658 -0.048189 -0.053095 -0.005366 -0.063393 -0.254039 -0.184173 -0.109850 -0.273359 0.065196 0.007646 0.143771 0.058550 -0.102095 0.183179 -0.084380 0.027728 -0.259977 -0.080184 0.286134 -0.092462 0.211699 -0.059390 0.096537 -0.240494 0.043850 -0.009559 -0.168544 -0.030268 -0.424721 0.079669 0.103211 -0.044784 -0.256786 0.011084 0.079541 0.165634 -0.131650 -0.107591 0.214967 -0.053314 -0.185613 0.019931 0.005494 0.259804 -0.112767 0.014172 0.376351 0.256187 0.185824 -0.073049 -0.049930 -0.147660 0.064854 -0.014510 -0.150260 0.306870 0.045112 -0.126894 -0.008139 0.066432 -0.353807 -0.175491 -0.036771 -0.023315 0.040254 0.150575 -0.173194 -0.146435 0.041556 0.167249 0.055603 -0.262226 0.215618 0.023019 -0.242417 0.021815 -0.064287 0.021307 -0.046020 -0.068000 -0.121409 0.028168 0.081420 0.046715 0.018165 -0.217898 -0.063415 0.132056 0.235343 -0.173412 0.041388 -0.098858 -0.119135 -0.179115 0.060877
-0.096216 0.217928 0.173156 -0.152720 -0.079432 -0.117328 -0.026686 0.073237 -0.233482 -0.002187 0.084289 0.085953 0.024309 0.168361 -0.003263 -0.194764 0.013567 -0.013298 0.002956 -0.203982 0.084728 -0.112529 0.025114 -0.057329 -0.046901 0.237033 0.154388 -0.087037 -0.082557 -0.041432 -0.009291 0.186500 0.212740 -0.043828 -0.004792 0.009073 -0.084421 -0.233756 -0.068840 -0.168199 -0.279747 0.235195 0.017205 0.009143 0.086264 0.050862 0.054844 0.008472 0.057534 -0.085587 0.004874 0.287536 -0.083027 0.118887 -0.186736 0.141758 -0.152729 0.014845 0.012560 -0.165162 -0.090099 -0.335654 0.074849 0.105529 0.094074 -0.114704 0.010385 0.013477 0.081519 -0.203432 -0.008161 0.323838 0.082923 -0.150440 0.068010 -0.087502 0.182134 -0.132105 -0.048728 0.408253 0.199297 0.266116 -0.098417 -0.119038 -0.156612 0.020100 -0.084232 -0.096635 0.273299 0.049519 -0.151164 0.111364 0.199709 -0.214247 -0.105923 -0.030151 -0.044724 -0.035236 -0.001150 -0.056521 -0.163620 0.030936 0.223972 -0.100178 -0.358880 0.091563 0.053791 -0.199963 -0.014375 -0.026969 0.170859 0.020733 -0.118262 -0.308408 0.052920 0.174294 -0.008149 -0.019490 -0.197372 0.048297 0.122983 0.166823 -0.280498 0.041728 -0.072124 -0.014951 -0.111417 0.025194
-0.066522 0.206480 -0.014953 -0.025645 -0.167572 -0.202150 -0.035517 0.044236 -0.184218 0.016408 -0.005139 0.188324 0.013723 0.282626 0.013308 -0.145069 0.016232 0.079955 -0.076002 -0.348107 0.183008 -0.088619 0.104523 0.041184 -0.026352 0.154770 0.196769 -0.168987 -0.105842 -0.089776 0.047954 0.245419 0.172751 -0.148781 0.040865 -0.052855 -0.108861 -0.229032 -0.150133 -0.003605 -0.232493 0.288099 0.050342 -0.013848 0.162943 0.031452 0.171960 -0.034543 -0.076613 0.111201 -0.151416 0.248493 -0.135279 0.107195 -0.241263 -0.036954 -0.148917 0.113024 -0.078697 -0.072953 0.049060 -0.210680 0.096601 0.239840 -0.022853 0.022995 -0.060469 0.029271 0.130549 -0.220360 -0.142290 0.253847 0.008527 -0.090839 -0.118029 -0.080084 0.111258 -0.186826 -0.123928 0.285670 -0.001101 0.223763 0.085538 -0.172364 -0.066167 0.327501 -0.059212 -0.032806 0.167268 0.054468 -0.216130 0.244933 0.128443 -0.035318 -0.149586 -0.126096 -0.033473 -0.069530 -0.093294 -0.092510 -0.111255 -0.074471 0.058669 0.031595 -0.231677 0.189457 0.258605 -0.075200 -0.002027 -0.098338 0.045815 -0.108774 -0.113566 -0.342206 0.007156 0.231388 0.008013 0.151899 -0.060402 -0.003224 0.074581 0.147844 -0.319717 -0.034287 0.041474 -0.050041 -0.063523 -0.029442
0.088654 0.213201 -0.196698 -0.010711 -0.002339 0.013040 -0.198661 -0.062761 -0.274924 0.003786 -0.061668 0.269022 -0.093112 0.179283 0.203405 0.174696 -0.032589 0.045078 -0.090612 -0.451427 0.146944 -0.120799 0.025131 0.164888 -0.022368 0.051110 0.158272 -0.030014 0.059611 -0.042696 0.093770 0.193536 0.117047 -0.114084 0.004245 -0.023339 -0.120209 -0.191949 -0.144616 0.246947 -0.208605 0.088434 -0.077665 -0.077832 0.268488 0.117210 0.133638 -0.052638 -0.019436 0.363546 0.003903 0.185473 -0.220255 0.076801 -0.187620 -0.049499 -0.002676 0.051868 -0.171232 -0.040556 -0.051968 -0.185787 0.010452 0.311478 0.068234 0.157397 -0.186251 0.057870 -0.101310 -0.114192 -0.176214 0.099153 0.007075 -0.282352 -0.024337 -0.265131 0.026327 0.033355 -0.001570 0.008533 -0.090233 0.290969 0.251225 -0.043799 0.142116 0.436687 0.028511 0.012973 0.032835 -0.003743 -0.251180 0.159460 0.054312 0.187011 -0.170003 -0.144976 -0.078698 -0.073321 -0.079567 -0.238427 -0.142643 -0.096087 -0.053328 0.091826 -0.159481 0.330981 0.295779 -0.115090 -0.048955 -0.250328 0.052976 -0.085467 -0.039155 -0.091254 -0.009598 0.265945 -0.007021 0.133564 -0.023482 0.097361 0.011246 0.101794 -0.496111 -0.059844 0.140775 -0.142682 0.075469 -0.036326
0.169783 0.219012 -0.287535 -0.050242 -0.054873 0.098543 -0.230513 -0.080146 0.039290 -0.091416 0.003968 0.483484 -0.047868 0.088737 0.175236 0.364451 -0.018818 -0.004573 -0.058379 -0.551501 0.128529 0.002620 -0.076266 0.314528 -0.060143 0.025387 0.074266 -0.129868 0.012555 0.069813 0.238604 0.129240 0.173913 0.071548 0.029116 -0.019493 -0.085333 -0.432145 -0.136364 0.252485 -0.294584 -0.113980 -0.170546 -0.060181 0.214428 0.165864 0.051181 0.055460 0.002454 0.371128 0.033532 0.096486 -0.122283 -0.029539 -0.204501 -0.105044 -0.037818 0.184227 -0.242135 0.035890 -0.091997 -0.129254 -0.124021 0.343903 0.187473 0.354071 -0.138042 0.113560 -0.245682 0.009686 -0.004276 0.010202 -0.051920 -0.281075 -0.072800 -0.410854 -0.009916 0.000459 0.131266 -0.087580 -0.242334 0.176047 0.162453 0.192302 0.135905 0.500772 0.211528 0.105674 -0.122078 -0.178005 -0.191644 0.164695 0.034050 0.172456 -0.054369 -0.107192 -0.126787 -0.120705 -0.039677 -0.425965 -0.116617 -0.209104 0.029338 0.063114 -0.105522 0.322634 0.354982 -0.072452 0.046239 -0.285282 -0.146626 -0.333953 -0.038193 -0.111955 0.007844 0.026232 0.012281 0.028677 0.262389 0.029281 -0.015493 -0.037818 -0.421017 -0.131268 0.260058 -0.178339 0.043832 -0.004133
0.049842 0.096757 -0.291137 0.037724 0.006958 0.019024 -0.287405 -0.010255 0.083959 -0.146953 0.005811 0.390260 0.021649 -0.035388 0.138698 0.249898 -0.067915 -0.090470 -0.059842 -0.764867 0.067584 0.011065 -0.004831 0.331264 -0.029776 0.101813 0.079973 -0.055246 0.033996 0.245817 0.391575 -0.035009 0.057706 0.174379 -0.069657 0.044306 0.033616 -0.471888 -0.213282 0.392143 -0.125932 -0.036648 -0.283444 -0.039773 0.174372 0.129050 -0.122340 0.025386 0.137115 0.304512 0.036482 0.174936 0.248428 0.126870 -0.201871 0.082625 0.032246 0.183272 -0.282847 -0.009225 -0.172736 -0.133736 0.008752 0.286798 0.104101 0.193015 -0.087684 0.200657 -0.224221 0.014948 0.080917 0.191066 -0.036488 -0.226614 -0.145507 -0.354943 0.061074 0.181173 0.156940 -0.028072 -0.120744 0.216228 0.132782 0.229399 0.133949 0.317971 0.170917 0.264865 -0.120096 -0.210209 0.029358 0.063572 -0.047126 0.188281 0.051656 0.120358 -0.091431 -0.081172 0.100487 -0.368243 -0.092876 -0.246156 0.017835 0.054268 -0.204393 0.163004 0.258342 -0.015841 0.049402 -0.368820 -0.273780 -0.388564 -0.087029 -0.057355 -0.011611 0.004282 -0.053535 0.007852 0.162571 0.099891 -0.078611 -0.201879 -0.347882 0.004003 0.241577 -0.061004 -0.164436 0.071930
-0.023483 0.057709 -0.164843 0.092239 0.098505 -0.011689 -0.181723 -0.056050 -0.038915 -0.062647 -0.068109 0.313543 0.063859 -0.002784 -0.057288 0.230561 -0.078720 -0.049695 0.033796 -0.687225 0.058875 0.057626 0.029881 0.131113 0.000567 0.207903 -0.004847 -0.095177 -0.002338 0.070358 0.345742 -0.057329 -0.009540 0.072204 -0.117468 0.058655 0.102610 -0.286536 -0.054781 0.187495 0.109990 0.043666 -0.216092 0.057206 -0.162162 0.169183 -0.166776 0.116612 0.250044 0.190783 -0.066555 0.296078 0.263858 0.130945 -0.401181 0.017170 -0.070544 0.075217 -0.147813 -0.053865 -0.217561 -0.184891 0.218815 0.139426 0.064280 -0.089169 -0.111858 0.114335 -0.006760 -0.030299 0.195544 0.376138 0.074886 -0.076303 -0.145126 -0.350009 0.058356 0.124261 0.074183 0.114211 -0.140959 0.074107 -0.054421 0.113453 0.011497 0.100997 0.110496 0.276237 -0.165758 -0.160305 0.156388 -0.051022 -0.181582 0.106138 -0.014131 0.183139 -0.134690 -0.029981 0.178833 -0.289440 -0.146187 -0.020416 -0.010316 -0.141406 -0.287452 -0.017571 0.137824 0.048580 -0.004631 -0.269333 -0.268714 -0.359873 -0.080897 -0.151492 -0.134691 -0.062591 -0.047774 0.016299 -0.067534 0.114293 -0.079891 -0.138765 -0.316825 -0.018347 0.234689 0.136677 -0.229741 0.130932
-0.038069 -0.049343 -0.305366 0.194692 0.049829 0.048931 -0.119984 -0.212194 -0.017749 -0.058184 -0.014864 0.196796 0.165088 -0.036463 -0.088448 0.214969 -0.056080 -0.023879 0.032598 -0.666888 0.091789 0.009325 0.067545 0.224597 -0.031649 0.141919 0.035136 -0.284229 -0.103159 0.054592 0.208089 -0.019080 -0.171830 0.122623 -0.053399 0.002819 0.042126 -0.375122 -0.026619 0.277156 0.095010 0.050908 0.060493 0.009301 -0.483670 0.237802 -0.089027 -0.147014 0.219908 0.080691 -0.029669 0.403580 0.144703 0.146117 -0.484285 0.031003 -0.088031 0.060101 -0.193852 -0.044796 -0.317985 -0.027106 0.443723 0.145552 0.013867 -0.118319 -0.098342 0.074864 0.059296 -0.053869 0.060223 0.351226 0.089199 -0.124497 -0.090448 -0.307515 0.285044 0.082682 0.075940 0.360230 -0.168623 0.062200 -0.064971 -0.005535 0.034439 0.176067 0.186294 0.373783 0.020817 -0.142450 0.309529 -0.065846 -0.341171 0.005500 0.134986 0.146255 -0.156517 -0.082845 0.260529 -0.268557 -0.117857 -0.069040 0.080289 -0.061864 -0.237650 0.122304 0.026990 -0.074165 0.004644 -0.368774 -0.154275 -0.392809 -0.109596 -0.233911 -0.208936 0.054524 -0.003882 -0.021072 -0.111982 0.080390 -0.078679 -0.047158 -0.292004 -0.077491 0.148630 0.038320 -0.186235 0.087570
-0.082787 -0.073357 -0.271490 0.089175 -0.010720 0.144288 -0.239242 -0.220215 -0.093350 -0.132556 0.083610 0.180426 0.258850 -0.029571 -0.027564 0.231189 0.061090 -0.053457 0.044646 -0.717579 0.157631 0.012440 0.036681 0.204976 -0.068817 0.281015 0.165551 -0.371023 -0.035487 0.100817 -0.154119 0.117402 0.006212 0.103399 -0.010920 -0.104935 0.176627 -0.345040 -0.103351 0.291315 -0.047689 0.092838 0.118671 0.067544 -0.659512 0.212421 0.039721 -0.226327 0.184909 0.175429 -0.028222 0.557132 0.170138 0.238627 -0.520749 -0.123763 -0.103751 0.091988 -0.340441 -0.000288 -0.304640 -0.000585 0.571790 0.199250 -0.176247 -0.059807 -0.178607 -0.076271 -0.011146 -0.024001 0.125491 0.444049 -0.086000 -0.144678 -0.130936 -0.380591 0.382178 0.012479 -0.025097 0.536881 -0.185863 0.141633 0.054209 0.042995 0.101747 0.164894 0.206567 0.497324 0.020071 -0.076910 0.321884 -0.038762 -0.299126 -0.002708 0.101246 0.039199 -0.089127 -0.047110 0.191437 -0.309450 -0.052828 -0.054981 0.063860 0.052597 -0.267508 0.190515 0.022016 -0.107430 -0.054383 -0.365267 -0.155569 -0.424706 -0.167014 -0.411363 -0.183421 0.020071 -0.033793 0.044967 -0.253216 0.229577 -0.168061 -0.114892 -0.611637 -0.204961 -0.011516 -0.123157 -0.025748 0.149676
-0.091010 -0.090106 -0.057532 -0.241073 -0.001478 -0.126856 0.008843 -0.041330 0.109724 -0.095936 0.094051 0.157962 0.086154 -0.109826 -0.046124 -0.030956 0.166825 -0.176791 0.020023 -0.271758 -0.028222 0.233376 -0.063586 0.220817 -0.151557 -0.156493 0.160857 0.086350 0.170476 -0.088019 0.234386 0.019745 0.027169 -0.117300 -0.232476 -0.218234 -0.207038 0.084367 0.059003 0.170451 -0.250674 -0.045426 -0.014589 0.066419 0.045201 0.324323 -0.026510 -0.014950 0.079452 0.037479 -0.009807 -0.116099 0.223153 -0.023659 -0.024901 0.129738 -0.089151 -0.016364 -0.087994 -0.120984 0.074917 -0.130563 0.122813 0.212567 0.159035 -0.048529 0.063578 0.158288 -0.262188 0.511227 0.139965 0.074596 -0.000266 0.200542 0.115269 -0.070345 0.032016 0.018123 0.025090 -0.136822 -0.074065 0.033017 -0.132310 0.074170 0.068080 0.124511 0.131852 -0.027899 -0.176755 -0.078754 -0.046516 -0.012222 0.053741 0.302142 -0.035565 0.129297 -0.048289 0.246993 -0.124654 -0.145618 -0.238840 0.075179 -0.020096 0.201765 0.345105 0.052667 0.183134 0.018666 0.138942 0.055812 -0.097833 -0.195948 0.059896 0.161715 0.006481 0.296197 0.160887 0.176665 -0.140777 0.104676 0.162512 -0.169244 -0.403074 -0.032416 0.430132 -0.013752 0.203216 0.001597
-0.061219 -0.142116 -0.031339 -0.411727 0.134710 -0.102520 0.027384 0.133550 0.183002 -0.171881 0.206543 0.203767 0.131407 -0.117787 -0.107782 -0.066706 0.255623 -0.067147 0.046103 -0.243152 0.009671 0.036642 -0.086129 0.267183 -0.048225 -0.063136 0.082008 0.062286 0.209242 0.008956 0.298344 0.023773 0.004435 -0.035837 -0.119027 -0.028091 -0.237704 0.055736 0.119807 0.267522 -0.199294 -0.054845 0.065191 0.090283 0.020115 0.144798 -0.069819 -0.057674 0.073847 0.032951 -0.140527 -0.019617 0.127182 -0.082703 -0.091297 0.111176 -0.153813 0.175497 -0.099885 -0.002673 -0.029723 -0.064968 0.282513 0.234666 0.188349 0.006969 0.073489 0.240598 -0.176135 0.328843 0.107601 0.170118 -0.062439 0.198008 0.136052 -0.077616 -0.059604 0.047696 0.037193 -0.182450 -0.183897 0.004525 -0.100150 0.078376 0.202046 0.063978 0.051475 -0.113123 -0.124781 0.019471 0.000346 0.062589 0.052211 0.149164 -0.135543 0.096642 0.004833 0.081793 -0.098314 -0.223528 -0.158371 -0.047344 -0.059045 0.214014 0.334779 0.013554 0.031330 0.027018 0.074333 -0.032284 -0.061545 -0.234778 0.029021 0.130901 -0.204244 0.265701 0.178519 0.176019 -0.120501 0.087324 0.181124 -0.199110 -0.495887 -0.018220 0.306820 0.115024 0.096118 -0.028260
0.145548 -0.075215 -0.059472 -0.424163 0.145319 -0.078064 -0.105566 0.155078 0.184742 -0.241303 0.121467 0.438426 0.106298 -0.225424 -0.220758 0.126031 0.300737 -0.064430 0.016806 -0.303089 -0.101097 0.019144 0.007271 0.175936 -0.058178 -0.058062 0.038150 -0.048755 0.114857 -0.154513 0.181233 0.064717 0.108667 0.017723 -0.149664 0.016383 -0.216381 0.078365 0.098730 0.291197 -0.269670 -0.045282 0.165781 0.027857 -0.062059 0.088918 0.005899 -0.163875 0.090884 0.050064 -0.058425 0.053959 0.157097 -0.000109 -0.106310 0.018546 -0.263391 0.193108 -0.298749 -0.043063 -0.025299 0.067880 0.379999 0.302460 0.315214 0.036297 0.122217 0.204876 -0.268833 0.277855 0.130118 -0.069045 -0.123993 0.170518 0.240693 -0.151018 -0.004277 0.079574 -0.125395 -0.100532 -0.201282 0.027070 0.058001 0.219211 0.119440 0.131127 0.041353 -0.106301 -0.212084 -0.101946 -0.067996 -0.040971 -0.096058 0.186981 -0.099906 0.102137 -0.079059 0.056600 -0.171698 -0.148681 -0.153535 -0.094866 0.099898 0.199665 0.319272 0.050376 0.141107 0.071637 0.222338 -0.131766 -0.118488 -0.284147 0.203043 0.020586 -0.315591 0.187199 0.099815 0.097611 -0.081909 0.085884 0.085610 -0.018746 -0.464889 0.012208 0.319381 0.150245 -0.018774 -0.194658
0.291086 -0.207117 0.078326 -0.427146 0.050476 0.034119 -0.274813 0.060265 0.095468 -0.155723 0.010231 0.461551 0.122517 -0.205691 -0.074818 0.293146 0.328296 0.067255 -0.008420 -0.275308 -0.076439 0.088289 0.039572 0.246192 0.083930 -0.003419 0.063358 -0.118141 -0.064833 -0.129110 -0.093295 0.138074 0.196037 0.207464 -0.081796 0.119431 -0.373807 -0.059141 -0.011395 0.239980 -0.433426 -0.210737 0.035702 -0.012248 -0.025165 -0.078950 -0.035310 -0.366843 0.072414 0.226006 0.083788 0.069670 0.426154 -0.169701 -0.072611 -0.133544 -0.264044 0.166091 -0.395206 -0.037757 -0.162645 0.015332 0.426999 0.378886 0.377256 0.172526 0.083395 0.320468 -0.366734 0.432396 0.243801 -0.201629 -0.077565 -0.018991 0.276844 -0.124698 0.031653 0.129670 -0.101451 -0.150758 -0.238640 0.051820 0.272185 0.338712 0.292827 0.084237 0.133769 0.082017 -0.215462 -0.172723 -0.035306 0.039451 -0.027933 0.262073 -0.056308 0.179634 0.020183 0.079577 -0.005806 -0.283347 -0.028063 -0.135631 0.338073 0.216154 0.067938 -0.037471 0.147334 -0.106144 0.242176 -0.144323 -0.043205 -0.461521 0.132507 0.004407 -0.224525 0.256802 0.158971 0.042131 0.157126 -0.045663 0.155778 -0.032715 -0.635946 0.090242 0.377171 0.125121 0.115623 -0.077433
0.231973 -0.154815 0.000852 -0.351356 0.034615 -0.008458 -0.297954 0.178596 0.073452 -0.115889 0.040774 0.390131 0.057782 -0.147443 0.153440 0.164608 0.291988 0.150794 0.012455 -0.399904 -0.092211 0.162112 0.102333 0.225715 0.082886 -0.088168 0.102262 -0.095224 -0.077197 -0.066931 -0.257394 -0.077964 0.261910 0.271084 -0.139483 0.231370 -0.394069 0.015198 0.004194 0.300350 -0.480754 -0.143558 0.149181 0.053659 -0.064335 -0.000395 -0.064246 -0.267744 0.263572 0.292240 0.281418 0.109360 0.434242 -0.138040 -0.043214 -0.129087 -0.107262 0.103274 -0.374396 -0.050068 -0.112995 0.121839 0.499320 0.330523 0.378686 0.156932 0.115288 0.177473 -0.403497 0.382817 0.172726 -0.135929 -0.011022 -0.091356 0.158855 -0.139623 0.113124 0.110257 -0.116480 -0.084680 -0.076318 -0.008570 0.149746 0.354220 0.340331 0.089276 0.158570 0.209499 -0.215661 -0.044534 -0.069734 0.014570 -0.119434 0.207267 0.068972 0.169023 -0.067226 -0.004951 -0.006592 -0.396260 -0.182667 -0.102719 0.300723 0.160618 0.086138 -0.091443 0.115228 -0.057829 0.292251 -0.207211 -0.189790 -0.452222 0.150852 -0.100190 -0.226590 0.151723 0.096223 0.086118 0.204251 -0.035798 0.170926 0.022567 -0.479409 0.092130 0.398443 0.153991 0.009710 -0.091876
0.186451 -0.094853 0.181762 -0.287898 0.204444 0.122345 -0.183354 0.170236 -0.104366 -0.142892 0.104806 0.187151 -0.039361 -0.255293 0.107994 -0.129634 0.006842 0.002355 -0.051875 -0.314741 -0.146663 0.023504 -0.036474 0.159307 0.090911 -0.150711 0.069962 -0.010223 0.023429 -0.069225 -0.169668 0.016512 0.071566 0.044241 -0.054511 0.030693 -0.301180 -0.010788 -0.100096 0.138864 -0.515290 -0.087368 0.034550 -0.000558 0.028211 -0.081704 -0.018104 -0.158283 0.181461 0.127598 0.125401 0.008552 0.425611 -0.067361 -0.040256 -0.097585 -0.041654 -0.015103 -0.173802 -0.046735 -0.214034 0.158185 0.261537 0.149456 0.212755 0.140792 -0.040152 0.114884 -0.220735 0.274908 0.161487 -0.113380 0.047868 -0.174467 0.288056 -0.167438 -0.125149 -0.179903 0.014601 -0.038839 -0.198326 0.033697 0.105578 0.166342 0.198114 0.180652 0.217108 0.068674 -0.123470 -0.077403 -0.162950 -0.051088 -0.163444 0.085863 -0.051231 0.059560 -0.131014 -0.042713 0.051984 -0.443802 -0.263418 0.099612 -0.016515 0.032989 0.115002 -0.175365 -0.056965 -0.012774 0.053826 -0.136436 -0.250043 -0.387129 0.281095 -0.059953 -0.130493 0.081106 -0.153132 0.086637 0.211303 0.166884 0.026690 0.050334 -0.480071 0.044887 0.359046 0.114212 0.026912 -0.242575
-0.019628 -0.155950 0.115015 -0.300357 0.105862 0.114071 -0.166853 0.048231 -0.049931 -0.078555 0.077601 0.066309 -0.040237 -0.179690 -0.033248 -0.072275 -0.097770 -0.005167 0.038955 -0.130703 -0.188764 -0.128845 -0.123772 -0.017615 -0.043393 -0.059504 0.116944 -0.010473 0.157080 0.000402 -0.139507 -0.051078 -0.011417 -0.019215 -0.027310 -0.013767 -0.138903 0.068526 -0.050549 0.155953 -0.219157 0.024198 -0.037749 0.011251 0.016258 -0.118177 -0.089781 -0.168216 0.329051 0.179744 0.054344 -0.094600 0.254828 -0.015026 0.024909 -0.075125 -0.024485 0.022285 -0.031990 0.047568 -0.103884 0.138394 0.081545 -0.050120 0.077386 0.031809 -0.031020 0.031756 -0.253958 0.171075 0.147374 0.021460 0.021289 -0.031490 0.207602 -0.214179 -0.228716 -0.142432 -0.026263 0.074088 -0.112378 0.099280 0.021720 0.102139 0.031092 0.118522 0.187107 -0.219239 -0.128271 0.108997 -0.077659 -0.016677 -0.211189 -0.129893 -0.017551 -0.115547 -0.050462 -0.070203 -0.063733 -0.458443 -0.097468 0.100433 -0.054575 0.056170 0.131482 -0.121472 -0.039631 0.112609 -0.023273 -0.062627 -0.187116 -0.266579 0.226691 -0.006231 -0.040844 0.103950 -0.091719 0.181409 0.182144 0.217405 -0.066394 -0.032690 -0.244280 0.101043 0.276746 0.221095 0.107361 -0.012628
0.031936 -0.209634 0.118134 -0.296544 0.235433 0.178981 -0.151509 0.059404 0.021122 -0.051903 0.126333 0.064631 -0.092992 -0.333313 -0.149031 -0.179422 -0.237923 0.116434 -0.056142 -0.044277 -0.127585 -0.062322 -0.018061 -0.123375 -0.120694 -0.040401 0.040085 -0.063062 0.121692 -0.067458 0.003321 -0.011105 0.017625 -0.026946 -0.050999 -0.128576 -0.184598 0.043057 -0.035053 0.056373 -0.131933 0.096177 -0.016169 0.115893 0.018665 -0.105224 -0.028763 -0.118163 0.237047 0.011185 0.100817 -0.008029 0.126614 -0.056873 -0.066231 0.059270 0.005681 0.020589 -0.073070 0.055960 -0.133869 0.117460 0.023110 -0.074948 0.187327 0.017105 -0.116332 -0.041671 -0.216672 0.043555 0.035573 -0.008167 -0.024113 -0.033864 0.186458 -0.232469 -0.102874 -0.277491 0.126532 0.026346 -0.215047 0.018785 -0.045816 -0.099488 -0.044990 -0.035330 0.362423 -0.284112 -0.167390 0.046564 -0.150721 -0.101915 -0.058014 -0.153760 -0.077732 -0.249122 -0.058503 -0.106706 -0.062081 -0.215612 -0.190145 0.109067 -0.057095 0.060884 0.095969 -0.049044 -0.079325 0.002307 -0.005655 -0.105586 -0.141090 -0.208423 0.120107 -0.134191 -0.002692 0.083170 -0.108581 0.170314 0.144516 0.019524 -0.093297 -0.011170 -0.212880 0.160628 0.133443 0.121398 0.014825 -0.041052
-0.103128 -0.192206 0.047164 -0.251051 0.172159 0.178508 -0.055330 -0.105328 -0.043962 -0.006146 0.036004 0.195190 -0.191015 -0.268511 -0.181080 -0.135088 -0.390125 0.116913 -0.034805 -0.052253 -0.128219 -0.080395 0.043428 -0.100470 -0.233006 -0.031521 0.029023 0.028497 0.172506 0.033750 0.071021 -0.153712 -0.010118 -0.131061 -0.038975 0.016446 -0.085322 0.058618 0.049845 -0.058915 -0.157789 -0.043173 0.057209 0.028742 -0.083866 0.010258 -0.147884 -0.154201 0.254824 -0.064929 0.032809 -0.041569 0.042041 -0.052789 -0.118575 -0.006007 0.047232 -0.080853 0.103987 0.131437 -0.100323 0.072788 -0.032244 -0.105077 0.162622 0.097972 -0.099145 -0.146537 -0.213231 0.090552 0.000239 0.133353 0.069085 -0.066586 0.146235 -0.327680 -0.129558 -0.284776 -0.014017 0.112131 -0.266804 -0.003798 -0.073862 -0.120807 0.024095 -0.043055 0.340859 -0.332663 -0.194610 0.013618 -0.208373 -0.208753 -0.019636 -0.150550 -0.077094 -0.147574 0.007907 -0.019796 0.000391 -0.206722 -0.300669 0.151189 -0.010724 -0.177316 0.108402 -0.046372 -0.183155 -0.099205 0.029176 -0.253325 -0.189543 -0.260831 -0.095102 -0.212331 -0.019714 0.004239 0.047192 0.110138 0.127743 0.061618 -0.200469 -0.038285 -0.151433 0.170255 0.218392 0.187698 0.054540 -0.029677
-0.159487 -0.087436 -0.001997 -0.323317 0.127852 0.034024 -0.143027 -0.061867 0.051891 -0.007819 0.004319 0.110949 -0.078549 -0.154214 -0.395300 -0.091189 -0.396274 -0.050855 -0.075556 -0.060617 -0.172976 -0.054550 -0.067240 -0.189051 -0.193491 0.146878 -0.085919 0.043306 0.117067 -0.165901 0.288654 -0.196257 -0.019938 -0.019987 0.074159 -0.020478 -0.133241 -0.024204 -0.088836 0.063765 -0.238638 -0.040241 0.053940 0.125656 -0.154024 0.051796 -0.253381 -0.061670 0.360618 -0.108410 0.008440 -0.047891 0.023172 0.001065 -0.207042 0.041073 0.032178 0.016057 0.082065 0.095472 -0.091753 0.241947 -0.112056 -0.066142 0.108856 -0.016447 -0.211836 -0.152150 -0.245846 0.068951 -0.007926 0.122891 -0.033015 -0.214683 0.224336 -0.322761 -0.108010 -0.168060 -0.033721 0.012558 -0.207180 -0.040888 -0.009464 -0.181229 -0.053495 -0.204428 0.415654 -0.254871 -0.213030 0.024994 -0.238728 -0.153579 -0.141904 -0.137255 -0.089346 -0.080983 0.003215 -0.138514 0.092071 -0.252659 -0.271709 0.092458 -0.027249 -0.153308 0.074436 -0.149988 -0.117265 -0.081796 -0.096327 -0.191407 -0.217127 -0.071567 -0.076029 -0.201568 -0.057749 0.078873 -0.034719 0.084518 0.027766 -0.068176 -0.135686 -0.017720 -0.349336 0.149694 0.165693 0.220447 -0.027734 -0.029711
-0.019713 -0.097272 -0.104118 -0.356290 0.039603 0.085188 -0.197737 -0.000352 -0.046846 -0.057406 0.041323 0.196461 -0.204166 -0.014383 -0.403857 -0.008067 -0.327262 0.083730 0.060271 -0.080505 -0.105612 -0.171062 0.003623 -0.024122 -0.344808 0.156666 0.051568 -0.060984 0.087886 -0.057524 0.283489 -0.163084 -0.031119 -0.032328 0.107644 -0.066465 -0.228790 -0.053276 -0.033236 0.072378 -0.208445 0.040159 -0.001032 0.110448 -0.315521 0.014822 -0.341042 -0.071845 0.296580 -0.037813 -0.039201 0.117960 0.103807 0.077687 -0.217754 -0.007484 -0.054721 0.030470 -0.022486 0.035046 -0.095209 0.097583 -0.054414 -0.044445 0.175286 0.061357 -0.066132 -0.029965 -0.208335 -0.074443 0.040872 0.173328 0.102532 -0.236349 0.212304 -0.378576 -0.004387 -0.100874 -0.128943 0.004454 -0.243214 -0.122664 -0.066579 -0.060362 -0.007922 -0.253177 0.298759 -0.270034 -0.298530 -0.096671 -0.144881 -0.023205 -0.117019 -0.213052 -0.058301 -0.075192 0.062765 -0.074152 0.201703 -0.385070 -0.322884 0.116893 -0.066218 -0.310555 0.028946 -0.236976 -0.104004 -0.165648 0.026829 -0.310268 -0.156214 0.015039 -0.109566 -0.269039 -0.221419 0.141062 0.050607 0.018753 0.056819 0.017058 -0.026521 -0.059627 -0.331294 0.223866 0.267926 0.305788 0.031642 0.036675
-0.075582 -0.048481 -0.070113 -0.333841 0.017430 0.114620 -0.374828 0.118383 -0.026775 -0.101991 0.075022 0.073864 -0.151040 0.112999 -0.313185 0.061036 -0.294638 0.014072 -0.041707 -0.171763 -0.154423 -0.215356 -0.008873 0.022371 -0.319418 0.104617 0.104696 0.011533 0.005618 -0.163987 0.420013 -0.111771 -0.015590 0.095484 0.039419 0.025455 -0.202965 -0.110587 -0.088296 0.138070 -0.251302 0.063862 -0.067234 0.075085 -0.452720 0.023796 -0.515893 -0.069277 0.237021 0.024042 -0.051952 0.113675 0.114089 -0.040225 -0.116928 -0.015230 -0.088894 0.013375 -0.067440 -0.034661 -0.166713 0.034332 0.028847 0.053254 0.243907 0.103196 -0.175937 -0.071364 -0.351797 -0.072002 0.017460 0.326314 0.192549 -0.289580 0.114028 -0.332624 0.009450 -0.100547 -0.206708 0.067394 -0.079674 -0.255957 0.027637 -0.136320 0.025839 -0.376918 0.204092 -0.023592 -0.299348 -0.024656 -0.052043 -0.037934 -0.160550 -0.114281 -0.024997 0.014889 0.118403 -0.064928 0.130407 -0.400151 -0.235199 0.133833 0.027015 -0.221677 0.107759 -0.251881 -0.019330 -0.251169 0.109068 -0.241049 -0.073760 -0.057582 -0.024868 -0.177890 -0.106758 0.007292 -0.010041 0.069193 0.127274 -0.070348 0.005669 -0.035460 -0.341725 0.173339 0.033579 0.246662 -0.129113 0.058404
0.000191 0.068497 -0.062404 -0.398738 -0.004660 0.110687 -0.150096 0.057472 -0.069563 -0.073625 -0.043468 0.108781 -0.209477 0.132442 -0.410512 0.032037 -0.166827 0.062859 0.008932 -0.234532 -0.067892 -0.035534 0.003727 0.200962 -0.449751 -0.053805 -0.069809 -0.096651 0.086150 -0.091806 0.339378 -0.157629 0.122512 0.128923 0.176932 0.020909 -0.138218 -0.246494 -0.089307 0.088354 -0.388491 -0.023298 -0.070443 0.092436 -0.342528 -0.109929 -0.589961 -0.031462 -0.085122 0.039052 -0.006919 -0.016911 0.083394 0.068002 0.028758 0.117884 -0.091909 -0.004263 0.033231 0.007555 0.002772 0.006670 0.092752 0.042654 0.076401 0.041471 -0.162573 0.016057 -0.311116 -0.088131 -0.124238 0.181224 0.197373 -0.280287 0.111657 -0.300167 0.051501 -0.108981 -0.132355 0.062544 -0.152335 -0.391029 0.094015 -0.076574 0.053338 -0.354799 0.201719 0.093125 -0.327086 -0.169941 0.106112 -0.147045 -0.036027 -0.140115 0.018159 0.073704 0.140705 -0.100668 -0.042898 -0.327750 -0.233113 0.122626 0.095535 -0.123359 0.094735 -0.155932 -0.005713 -0.201768 0.169236 -0.191017 -0.113886 -0.044044 0.060387 -0.089188 -0.053406 -0.022322 0.024737 -0.032024 0.163679 0.024375 0.056262 0.035675 -0.317521 0.082770 -0.161595 0.153624 -0.052524 0.046020
0.002747 0.103412 -0.057505 -0.334245 -0.087171 -0.108597 -0.254964 0.036698 -0.055809 -0.066569 -0.047467 0.099086 -0.124278 0.163140 -0.334976 0.173055 -0.146417 0.063523 -0.031785 -0.130956 -0.083642 -0.073673 0.016061 0.093148 -0.438908 0.079390 -0.005839 -0.094821 0.131969 0.028126 0.051838 -0.031470 0.003749 0.077236 0.178783 0.048489 -0.208067 -0.268965 -0.112075 0.023761 -0.239512 0.022653 -0.139007 0.063472 -0.142902 -0.271929 -0.459729 -0.048581 -0.471364 -0.068281 0.127706 0.048807 0.028204 0.001892 0.009117 0.044600 0.010199 -0.055043 0.005375 0.143346 -0.083802 0.020588 0.095055 -0.017345 0.063723 0.058567 -0.160410 -0.006679 -0.157559 -0.057972 -0.034538 0.191014 0.146113 -0.057410 0.199930 -0.310219 0.016854 -0.042036 -0.209638 0.125797 -0.050858 -0.521578 0.035887 -0.064280 -0.015164 -0.395265 -0.031098 0.234882 -0.395634 -0.173790 0.343217 -0.162157 0.025568 -0.045439 -0.108570 0.028429 0.130656 -0.039148 0.005404 -0.339876 -0.167160 0.059189 0.104548 -0.096559 0.181749 -0.099311 -0.065990 -0.171185 0.112119 -0.167888 -0.010690 -0.047746 -0.021451 -0.097195 -0.093046 -0.046170 -0.071297 0.017881 0.192947 0.024212 0.004424 -0.045998 -0.216906 -0.035635 -0.232916 0.135993 -0.003025 0.022267
0.021759 -0.064962 -0.104373 -0.455011 -0.023304 -0.122534 -0.103411 0.030398 -0.087992 0.039265 0.067777 0.115399 -0.179472 0.099520 -0.099247 0.105248 -0.174086 -0.030836 0.046863 -0.184490 -0.090295 -0.001547 -0.062144 0.140734 -0.486070 -0.014113 0.027594 0.013106 0.044022 -0.111398 -0.292133 -0.037036 0.129007 0.222166 0.092950 0.103266 -0.128424 -0.199980 -0.230517 -0.014039 -0.259003 0.028067 -0.218415 -0.019903 0.039677 -0.411087 -0.261112 0.037021 -0.660353 -0.243720 0.097312 0.011795 0.020650 -0.109209 0.148452 0.101197 -0.002347 -0.048563 0.027357 0.124906 0.045584 -0.057824 0.065699 0.009075 0.015220 -0.000776 -0.132483 0.170497 -0.118778 -0.076729 -0.137938 0.105555 0.185432 -0.085284 0.105295 -0.360248 -0.036069 -0.140644 -0.129661 0.057573 0.086016 -0.371887 0.135955 -0.099025 0.032843 -0.472401 -0.017120 0.221172 -0.271810 -0.045623 0.325141 -0.069863 0.178401 -0.052982 -0.142855 0.044289 0.077847 -0.092222 -0.150888 -0.240226 -0.201116 -0.001609 0.125010 0.044568 0.103388 -0.193982 -0.055781 -0.146510 0.039666 -0.117169 -0.104875 -0.090905 0.017233 0.069677 -0.021932 0.089978 -0.019197 0.022412 0.091901 -0.028791 -0.049330 0.003374 -0.211320 -0.051621 -0.236335 0.071948 -0.038843 0.003079
-0.043538 -0.021465 -0.107258 -0.406351 -0.203504 -0.121663 0.033571 0.166625 -0.029611 0.040429 0.009034 0.173221 -0.044955 0.092671 -0.059318 0.141244 -0.098104 0.034282 -0.077259 -0.252459 0.039576 -0.091245 -0.138899 0.156283 -0.348348 0.019557 0.039116 0.047131 0.072725 -0.097467 -0.586524 -0.022536 0.071100 0.126953 0.066193 0.176533 0.037040 -0.158883 -0.234854 -0.054568 -0.187259 0.086858 -0.122355 0.021340 0.045509 -0.427018 -0.106006 0.098137 -0.443704 -0.404204 -0.014741 0.190044 0.072653 -0.004986 0.122744 0.119411 0.172939 -0.013354 0.051602 0.259932 -0.042588 -0.050282 0.050501 -0.023361 0.117479 0.021468 -0.046343 0.029762 -0.085018 -0.116087 -0.115307 -0.003837 0.259205 -0.163741 0.088400 -0.398647 -0.034666 0.019054 -0.062407 0.072404 0.053112 -0.325226 0.057594 -0.060347 -0.051495 -0.586221 -0.145615 0.112148 -0.316159 -0.030009 0.290974 -0.038726 0.134453 -0.101523 -0.205299 0.055058 -0.035817 -0.115818 -0.109884 -0.124936 -0.051202 -0.008951 0.152238 -0.026843 0.165662 -0.224921 -0.133450 -0.103401 0.175129 -0.228552 -0.099169 -0.043071 0.084865 0.217594 -0.066826 0.072954 -0.146856 -0.043181 0.144523 -0.144014 -0.001353 0.016039 -0.155667 -0.084148 -0.246105 0.063152 0.025931 0.116921
-0.088031 -0.017794 0.014513 -0.250400 -0.327253 -0.091873 0.122823 0.090319 0.054771 -0.022648 0.093229 -0.004612 -0.078037 0.044919 -0.128635 0.017862 -0.203356 0.073819 0.041966 -0.311781 -0.014091 -0.055545 -0.109045 0.104764 -0.341458 -0.050138 0.051349 0.088326 -0.077149 -0.140861 -0.698094 -0.036547 0.103602 0.012653 -0.001082 0.103575 0.023887 -0.075362 -0.254957 -0.024290 -0.095486 0.035312 -0.056887 -0.118887 0.155536 -0.312390 -0.054571 0.050867 -0.360900 -0.434352 -0.033968 0.207777 0.028329 0.007903 0.115434 -0.004753 0.143679 0.016485 0.083441 0.231381 -0.018955 -0.142020 0.129350 0.093740 0.061670 0.084457 -0.171146 0.000010 0.068870 -0.113179 -0.050543 0.073830 0.118296 -0.019639 0.147694 -0.348374 -0.074862 -0.118598 -0.157205 0.080028 0.145688 -0.132923 0.071346 -0.019962 0.032535 -0.345386 -0.204583 0.100755 -0.290323 -0.007925 0.110856 0.014336 0.070377 -0.107159 -0.167167 0.080477 -0.019870 -0.046628 -0.007282 -0.144365 -0.066364 -0.092775 0.233062 0.064293 0.046913 -0.205461 -0.134399 -0.258168 0.042903 -0.146356 -0.047064 -0.019358 0.086821 0.289433 -0.063141 0.043996 -0.056699 -0.011363 0.105579 -0.189305 0.066923 0.025507 -0.294084 -0.064173 -0.218791 0.036874 -0.034914 0.060293
-0.141180 0.036518 -0.021100 -0.262869 -0.148209 -0.144418 0.043275 0.102405 -0.031760 0.079200 0.059716 -0.004376 -0.037430 -0.117699 -0.091092 -0.106511 -0.139475 0.013282 0.025483 -0.211643 0.005964 -0.048487 -0.200503 0.091281 -0.187587 0.040159 0.190725 0.066768 0.037318 -0.158547 -0.291692 0.053118 0.102259 0.093044 0.062304 0.138273 0.089481 -0.170978 -0.222844 -0.026333 -0.203750 -0.012220 -0.135157 -0.012250 0.136130 -0.291150 -0.060173 0.002522 -0.105401 -0.368823 0.028803 0.189436 0.025511 0.024824 0.092615 0.082183 0.121540 -0.025149 0.075628 0.126181 0.034169 -0.296780 0.128131 0.055474 0.144938 0.047232 -0.074100 0.059751 0.026267 -0.020697 -0.035882 0.100902 0.197446 -0.125533 0.108434 -0.185641 -0.013578 -0.160574 -0.138872 0.076700 0.161329 -0.061855 0.069622 0.012484 0.034450 -0.332423 -0.135048 0.035866 -0.091682 -0.116315 -0.023514 -0.043056 0.144873 -0.218010 -0.261163 -0.002256 -0.014724 -0.079836 0.000110 -0.287010 -0.053221 0.026003 0.250758 0.111936 -0.032408 -0.038806 0.020297 -0.254403 0.084514 -0.174536 -0.164217 -0.009575 -0.035999 0.184571 0.029328 -0.071055 -0.072931 -0.008253 -0.037396 -0.208284 0.074473 0.018846 -0.277473 0.012616 -0.150310 0.002952 -0.076846 -0.034964
-0.015717 0.053727 -0.003579 -0.206410 -0.076477 -0.031187 0.000228 0.035855 -0.014867 0.101174 -0.027697 0.069732 0.123605 -0.092800 -0.054226 -0.269025 -0.137456 -0.030940 -0.075167 -0.135861 0.046382 -0.030028 -0.149333 0.079315 -0.200993 -0.037883 0.133055 0.129442 -0.036332 -0.048405 -0.106995 0.064119 0.086953 0.141503 0.058592 0.081118 0.046361 -0.040413 -0.225107 -0.053790 -0.266375 -0.095052 -0.091181 0.029104 0.166040 -0.178047 -0.044702 -0.042677 -0.023692 -0.437503 0.065330 0.066969 -0.100762 0.063750 0.071265 0.101458 -0.013048 -0.073586 0.065219 0.004167 0.127885 -0.406541 0.130946 0.099628 0.145789 -0.022521 -0.099728 0.061301 0.110088 -0.092478 -0.008524 0.181424 0.154918 -0.149616 0.073522 -0.154333 0.041900 -0.146206 -0.021715 0.098336 0.126471 -0.038001 -0.038226 -0.080918 -0.017720 -0.081131 0.020521 -0.128630 -0.031549 -0.089298 -0.224518 0.020727 0.161901 -0.119896 -0.307623 0.007672 0.081660 -0.074013 0.043886 -0.175968 -0.125582 0.026766 0.189424 0.111380 -0.099673 0.008690 -0.055118 -0.308608 0.129404 -0.068063 -0.089333 -0.064869 -0.033650 0.122317 -0.010370 0.002415 -0.038869 -0.013799 -0.122841 -0.134042 -0.006349 0.116162 -0.287798 0.110509 -0.192441 -0.017567 -0.137727 0.042438
-0.109170 0.097835 0.238273 -0.171749 -0.067205 -0.037839 0.052591 0.094341 -0.001955 0.079266 -0.027964 0.174691 0.185962 -0.005544 -0.041780 -0.382720 -0.195051 0.021951 -0.001862 -0.154462 -0.077248 0.055466 -0.146526 0.050349 -0.107403 0.055125 0.062953 0.093360 0.004429 -0.103482 0.109522 -0.017237 0.138492 0.116627 0.070610 0.029496 0.080860 -0.130972 -0.075730 -0.005569 -0.275219 -0.011573 0.083498 0.007636 0.048673 -0.109061 -0.044654 0.108547 -0.097003 -0.244299 -0.028374 0.141892 -0.104619 0.117407 0.009066 0.014906 -0.064218 -0.068121 0.037440 0.028778 -0.005308 -0.414532 0.029608 0.023620 0.028197 -0.089329 -0.025699 0.018412 0.146416 -0.095482 -0.028928 0.139545 0.040477 -0.104525 0.056147 -0.098462 0.031645 -0.112848 0.091037 0.157551 0.087147 0.026018 -0.077198 -0.008696 -0.045019 -0.084329 -0.036018 -0.288166 0.075835 -0.109312 -0.259655 -0.055417 0.112180 -0.260502 -0.255630 -0.011061 0.024527 -0.145165 0.006902 -0.167445 -0.080471 -0.006257 0.240856 -0.009861 -0.137554 0.046784 -0.016149 -0.357275 0.135245 -0.075192 -0.002910 -0.083124 -0.003080 0.058821 0.045208 -0.005955 -0.032808 0.014407 -0.049928 -0.122877 -0.050391 -0.026053 -0.166822 0.000187 -0.057281 0.069892 -0.185483 0.005628
-0.013239 0.109893 0.213919 -0.041378 0.073706 -0.018040 0.087941 0.023052 -0.108702 0.027658 0.038028 0.195293 0.141557 0.059861 -0.164001 -0.254660 -0.039798 -0.084419 0.047162 -0.257543 -0.017745 0.139147 -0.111123 -0.006731 0.014254 0.165996 0.039532 0.020114 -0.101162 -0.042532 0.123167 0.037156 0.233526 0.040211 0.069029 0.071901 -0.020624 -0.058471 -0.086760 0.019326 -0.337587 0.014797 0.029560 -0.086249 0.202037 -0.017660 -0.012503 0.055940 -0.174301 -0.197925 0.021394 0.157997 -0.191966 0.155406 0.019365 -0.027799 -0.083263 -0.046198 0.115852 -0.071663 0.087958 -0.323953 0.018733 0.093390 0.133576 -0.051289 0.068048 0.045012 0.183970 -0.145335 0.098495 0.173394 -0.026072 -0.211713 0.113997 -0.020850 0.179530 -0.087652 -0.041237 0.176598 -0.009120 0.006856 -0.009005 -0.155189 -0.000184 0.035082 -0.034724 -0.228837 0.028616 -0.088937 -0.338346 0.064192 0.117490 -0.214318 -0.250412 0.110296 0.031243 -0.127999 -0.117154 -0.187714 -0.041771 -0.003571 0.090873 0.105853 -0.180709 -0.046558 -0.085086 -0.284948 0.082195 -0.096336 -0.013872 -0.114353 0.025022 -0.130094 -0.028406 -0.043616 -0.072866 -0.035224 -0.162923 0.004841 -0.048659 0.004025 -0.278067 -0.003684 -0.089343 0.056175 0.046432 0.052413
-0.003577 0.249790 0.081386 0.059889 0.006318 -0.029083 0.044900 0.037495 -0.109718 -0.013746 -0.013707 0.190990 0.140160 0.069722 -0.095007 -0.244374 -0.116057 -0.013174 -0.053790 -0.372895 -0.022023 0.052644 -0.025048 -0.074970 -0.043645 0.115216 0.137983 -0.071325 0.083568 0.018692 0.082912 0.077809 0.267076 -0.020069 0.038768 0.081608 -0.013473 -0.051730 -0.114649 0.004593 -0.280947 0.093924 0.024716 -0.019697 0.255446 0.037401 0.031285 -0.024823 -0.031895 0.005731 0.001209 0.112430 -0.177870 0.180473 -0.044408 0.055154 -0.031082 0.055770 0.076960 -0.085725 -0.071121 -0.362597 0.012516 0.154529 0.099360 0.001467 -0.002075 -0.084209 0.116253 -0.146090 -0.011488 0.164805 0.073425 -0.090351 0.112257 -0.140104 0.140334 -0.188141 -0.048245 0.102886 -0.102858 0.060809 0.052190 -0.211897 0.030587 0.108723 0.043689 -0.208670 0.158075 0.018551 -0.404672 0.089081 0.215367 -0.160908 -0.143676 0.022944 -0.061425 -0.028968 -0.167259 -0.262039 -0.022974 0.020344 -0.031929 0.079878 -0.302988 0.093495 -0.033592 -0.201827 -0.022767 -0.040897 0.048711 -0.061659 -0.055481 -0.257319 0.020414 0.069774 -0.018456 0.046846 -0.093701 -0.047380 0.034557 0.029663 -0.356745 0.092835 0.033578 -0.058960 0.000122 -0.030483
0.012477 0.208409 0.015804 0.120651 0.058314 -0.063959 -0.014977 0.020518 -0.070942 0.170047 0.031767 0.055878 0.103803 0.205702 0.020987 -0.043233 -0.112507 -0.019047 -0.005616 -0.524693 0.041290 0.045175 -0.051691 -0.014817 0.021966 0.074264 0.087240 -0.051558 0.036139 -0.046487 0.093444 0.230646 0.095257 -0.141173 0.097939 0.030728 -0.014041 -0.151653 -0.092636 0.106303 -0.358301 0.084643 0.083365 -0.017671 0.196380 0.089530 0.101587 0.132298 0.025260 0.058105 0.052877 0.184310 -0.182526 0.196864 -0.208263 -0.042963 0.053596 0.032133 0.032152 0.042133 -0.018828 -0.139626 -0.202318 0.112672 0.034973 0.119502 -0.024861 -0.108979 0.004359 -0.115848 -0.100574 0.089471 0.011185 -0.224461 0.056535 -0.176374 0.031369 -0.042355 -0.039474 0.115095 -0.190979 0.040458 0.085293 -0.183690 -0.024448 0.296056 0.048120 -0.146073 0.046561 0.018376 -0.363880 0.112380 0.232660 -0.057396 -0.179178 0.016418 -0.040349 -0.060926 -0.203629 -0.294304 -0.089443 -0.028985 0.010750 0.001458 -0.226031 0.094333 0.052048 -0.062972 0.090674 -0.298889 0.007857 -0.209698 -0.029927 -0.270344 0.061078 0.128740 -0.084689 0.129674 -0.067678 -0.014257 -0.002196 0.103649 -0.471520 -0.095244 0.245978 -0.140537 0.036811 -0.040330
0.038082 0.167211 -0.063397 -0.011596 0.135357 0.028144 -0.081276 -0.074011 -0.042636 0.015433 0.169829 0.204177 0.126054 0.096561 0.076945 0.258037 0.042788 0.156592 0.008398 -0.549306 0.064701 -0.020788 0.026835 0.046935 -0.077369 -0.058164 0.069542 -0.074342 0.160404 0.114168 0.137631 0.158294 0.129058 0.000412 -0.037494 -0.015425 -0.110759 -0.172453 -0.203511 0.102354 -0.293333 -0.074326 -0.062920 0.044189 0.108073 0.117673 -0.020521 0.101963 0.156999 0.130055 0.010209 0.185768 -0.089127 0.104154 -0.177431 -0.022083 -0.025472 0.037622 -0.140502 0.020708 -0.023010 -0.210116 -0.080252 0.178278 0.166379 0.126297 -0.068048 -0.019910 -0.139653 -0.097879 0.044156 0.039572 -0.036569 -0.239105 0.147156 -0.171772 0.179768 0.056299 0.083144 -0.076730 -0.228226 0.150482 0.202555 -0.138089 0.046485 0.348835 0.001485 -0.055946 0.057325 -0.092754 -0.147301 0.129572 0.138386 0.158410 -0.000403 -0.006971 -0.119983 -0.051174 -0.065198 -0.321678 -0.013132 -0.100149 0.066012 0.014742 -0.251548 0.062611 0.116709 -0.106194 0.113627 -0.291971 0.038684 -0.293432 -0.079759 -0.222655 -0.098783 0.076818 -0.105040 0.022128 0.046183 0.070090 -0.078207 0.004169 -0.392331 -0.087053 0.240757 -0.166108 -0.048218 0.081585
-0.072562 0.086901 -0.032493 0.029917 0.084727 0.172674 -0.066966 -0.070469 0.050902 -0.113921 0.014543 0.254286 0.008390 -0.013931 -0.031138 0.317892 -0.038599 -0.045904 0.039932 -0.632526 -0.061590 0.015233 -0.070766 0.136611 -0.084251 0.086191 0.012817 -0.133738 0.067284 0.183496 0.346508 0.071557 -0.004133 0.117831 -0.103592 0.020379 -0.044869 -0.321434 -0.161399 0.150599 -0.172342 -0.165214 -0.069090 -0.017600 0.072538 0.281095 0.033718 0.000306 0.221791 0.158681 0.048216 0.208007 0.144197 0.022724 -0.304082 0.019690 -0.091042 0.139617 -0.205741 0.023232 -0.173837 -0.135592 0.151021 0.132579 0.103723 0.065568 -0.172358 0.055679 -0.040462 -0.050224 -0.000625 0.303210 0.020085 -0.212137 0.062676 -0.333711 0.116960 0.076596 0.076609 0.056496 -0.099627 0.049997 0.097002 0.003762 -0.034979 0.171690 0.143537 0.253355 -0.149571 -0.203795 0.044538 0.069661 0.090920 0.076402 -0.041934 -0.023853 -0.017454 -0.041608 0.028680 -0.326036 -0.162262 -0.158631 0.008771 0.046277 -0.151234 0.124164 -0.018633 0.028114 0.046359 -0.318239 -0.038903 -0.481221 -0.086527 -0.206080 -0.176388 0.061171 -0.056229 0.003295 -0.035833 0.106662 -0.254445 0.028488 -0.353941 0.003008 0.327341 -0.034758 -0.014818 0.080907
-0.063659 0.063068 -0.106970 0.188493 -0.015876 0.113877 -0.218733 -0.051302 0.046870 -0.117834 -0.089110 0.084677 0.072331 -0.039050 -0.095378 0.193806 -0.010799 0.011130 0.024794 -0.599675 -0.082473 -0.037929 -0.081608 0.157834 -0.044818 0.049175 0.095514 -0.273030 -0.106586 0.125443 0.358635 0.010703 -0.064035 -0.059400 -0.009771 -0.029264 0.085249 -0.311114 -0.163097 0.114965 -0.001710 -0.085821 -0.151237 0.083099 -0.224590 0.299464 -0.045120 0.063798 0.268794 0.007107 -0.034351 0.361581 0.214203 0.010641 -0.317562 0.007418 -0.022837 0.034881 -0.167738 0.104331 -0.252127 -0.151908 0.215082 0.048051 0.132047 -0.129350 -0.091920 -0.029740 0.056699 0.058090 0.172090 0.483252 0.103797 -0.202421 0.003994 -0.235173 0.235081 0.037234 0.208873 0.119719 -0.149226 -0.081164 -0.186240 0.064181 0.035348 -0.023791 0.169505 0.340232 -0.059220 -0.141474 0.138362 -0.126977 -0.130775 0.040955 0.087288 0.112401 -0.078122 -0.120272 0.244837 -0.234973 -0.082711 -0.016663 -0.029290 -0.132285 -0.209746 -0.013857 -0.063931 0.076009 0.038904 -0.387868 -0.130346 -0.345216 -0.125770 -0.237638 -0.270362 -0.098599 -0.070200 -0.001003 -0.068838 0.045905 -0.246035 -0.073021 -0.223241 -0.048020 0.143322 0.089566 -0.099080 0.125910
-0.018001 -0.012118 -0.073615 0.121471 0.078830 0.098259 -0.140084 -0.150106 -0.026103 -0.111855 -0.113534 0.022725 0.186262 -0.039483 -0.044323 0.207446 0.039444 0.013007 0.015998 -0.569238 -0.035972 -0.018375 0.098928 0.044087 0.041952 0.191215 0.164164 -0.225726 -0.163244 0.110640 0.125780 0.048022 -0.176826 0.068329 -0.027201 -0.052861 0.144933 -0.179061 -0.002118 0.118635 0.008645 0.129996 0.081773 0.064874 -0.528430 0.242082 -0.084817 0.003313 0.171004 -0.036162 -0.091466 0.485359 0.247027 0.104580 -0.526505 0.045856 -0.099808 0.025579 -0.141086 0.114074 -0.285382 -0.023465 0.455833 0.001806 0.003560 -0.209810 -0.068932 -0.068855 0.035030 -0.008893 0.104326 0.505197 0.123476 -0.147661 0.024340 -0.161261 0.379034 0.076074 0.037164 0.521675 -0.173284 0.034986 -0.053766 0.012139 -0.088620 -0.045128 0.145623 0.287567 -0.058260 -0.154136 0.203100 -0.104654 -0.180740 -0.020667 0.003724 0.248685 -0.122589 -0.095012 0.193284 -0.197704 -0.069604 -0.020040 0.038666 -0.071509 -0.297693 0.093796 -0.114607 0.097488 -0.035470 -0.428268 -0.032696 -0.387494 -0.085683 -0.427763 -0.182604 -0.031695 -0.172921 0.059703 -0.218484 0.150072 -0.231007 -0.174060 -0.298103 -0.229112 0.149904 -0.028312 -0.030417 0.084324
0.012118 0.003207 -0.131252 0.151585 -0.064014 0.079939 -0.056401 -0.103307 -0.259199 -0.218659 -0.052300 0.056095 0.213927 -0.089452 0.002818 0.230914 0.008594 -0.035354 -0.050281 -0.629930 0.108055 -0.024106 0.067402 0.044208 0.017011 0.270181 0.255372 -0.356543 -0.106090 0.058755 -0.155497 0.153650 -0.016515 0.029037 -0.148404 -0.044118 0.172746 -0.222703 -0.096740 0.209015 -0.019076 0.046170 0.122533 0.137918 -0.614383 0.195509 0.006471 -0.224836 0.084651 0.067766 -0.192247 0.434577 0.284889 0.176187 -0.484819 -0.137676 -0.030539 -0.024817 -0.412179 -0.087400 -0.148259 -0.049887 0.450840 -0.011690 -0.012738 -0.213692 -0.045884 -0.201197 -0.005162 0.039567 0.138854 0.478829 -0.057414 -0.064123 -0.083613 -0.160535 0.477072 0.023446 0.042240 0.649936 -0.174383 0.115845 -0.055949 -0.014606 -0.043732 0.007382 0.241946 0.232580 -0.076923 -0.082189 0.193027 -0.170603 -0.268414 -0.068552 0.073929 0.200011 -0.177659 -0.085456 0.193291 -0.202231 0.072288 -0.112248 0.025992 -0.004993 -0.240402 0.137029 0.042909 0.008617 -0.028965 -0.396625 0.073585 -0.449178 -0.113374 -0.474631 -0.179200 -0.013638 -0.157292 -0.053426 -0.194319 0.124173 -0.322024 -0.167777 -0.460000 -0.310242 0.034407 -0.083664 -0.038542 0.225701
-0.097060 -0.017242 0.055049 -0.116121 -0.047142 -0.119465 -0.103749 -0.030301 0.099886 -0.149743 0.068924 0.191529 0.181438 -0.130894 -0.112386 0.007489 -0.041297 -0.214562 0.080324 -0.139122 -0.043306 0.146531 -0.099430 0.067772 -0.091210 0.025520 0.086447 0.079691 0.185646 -0.041924 0.357853 0.065899 0.268405 -0.305460 -0.084633 -0.216839 -0.246026 0.267067 0.143953 0.180659 -0.143142 0.099509 0.111989 -0.059952 0.009676 0.315646 -0.019748 -0.110569 0.144009 -0.033559 -0.079916 -0.160300 0.175094 0.047988 -0.108773 0.166540 0.011629 -0.008176 0.186095 -0.065111 0.088347 -0.353209 0.078186 0.079478 0.071052 -0.122508 0.007408 0.136349 -0.058503 0.501783 0.177823 0.054260 0.015986 0.327538 0.080631 0.056543 -0.095564 -0.092253 0.117612 -0.075555 -0.145636 -0.088633 -0.304840 0.086667 0.100687 0.025592 0.103154 -0.023975 -0.066289 -0.061893 -0.052483 0.004391 0.037289 0.243661 -0.219232 0.157080 -0.124270 0.161838 -0.162817 -0.174245 -0.195252 0.139648 -0.142945 0.020807 0.165489 0.087574 0.127637 -0.029004 0.071492 0.213176 -0.189577 -0.185156 0.039363 0.109466 -0.027545 0.167005 0.066092 0.062919 -0.215002 0.121546 0.076794 -0.260211 -0.354765 -0.005931 0.348819 0.066554 0.236520 0.143544
-0.135276 -0.122818 -0.135067 -0.177465 -0.022592 -0.095965 0.014516 0.055068 0.142682 -0.188532 0.055751 0.269788 0.222690 -0.135033 -0.106374 0.049100 0.079741 -0.197455 0.046146 -0.175164 -0.007638 0.006977 -0.023461 0.169593 0.025547 -0.007612 0.048887 0.004128 0.201319 -0.063905 0.348206 -0.013974 0.165461 -0.037592 -0.112592 -0.049715 -0.206296 0.138093 0.133556 0.160768 -0.198886 0.072168 0.086439 -0.060930 0.003622 0.063776 -0.002157 -0.115512 0.155917 0.093954 -0.072422 -0.027340 0.074779 -0.000804 -0.056279 0.167031 -0.031230 0.112490 0.017964 -0.025473 -0.000911 -0.189122 0.175388 0.163320 0.102555 0.016379 0.052014 0.028047 -0.122691 0.284209 0.159951 0.073734 -0.043862 0.333006 0.162423 0.026019 -0.082425 -0.140469 -0.040574 -0.180504 -0.020664 -0.094844 -0.209588 -0.011714 0.049478 0.017103 0.021613 -0.016061 -0.103443 -0.001881 0.002458 0.116545 -0.023744 0.172329 -0.128241 -0.034646 -0.028256 0.081593 -0.239723 -0.186077 -0.208126 0.038427 -0.061031 0.086248 0.152215 0.061430 0.103695 0.060378 0.049951 0.156295 -0.157143 -0.152372 0.077886 0.154188 0.007128 0.233917 0.013410 0.080350 -0.225778 0.170863 0.112588 -0.124827 -0.407399 -0.124498 0.342235 0.009392 0.082586 0.037947
-0.010871 -0.181682 -0.017510 -0.400194 0.138108 -0.083566 -0.050739 0.034223 0.053779 -0.132992 0.103041 0.352312 0.070567 -0.104766 -0.157591 0.110444 0.132574 -0.095879 -0.019671 -0.197989 0.053469 -0.041916 -0.107247 0.160210 -0.000955 0.004726 0.060945 0.064544 0.155073 -0.047338 0.093728 0.166896 0.128587 0.073129 -0.120159 0.053138 -0.206619 0.100405 0.136145 0.040238 -0.080262 0.026686 0.146661 -0.006047 0.040481 0.047079 -0.101314 -0.187738 0.067854 0.135098 -0.061651 -0.046520 0.094571 0.051290 -0.038229 0.038040 -0.230905 0.173250 -0.191879 0.058387 0.023931 -0.061264 0.152851 0.127116 0.214724 0.037353 0.080442 0.115805 -0.051624 0.172870 0.058874 0.056381 -0.003300 0.179750 0.214446 -0.101366 -0.041918 -0.042489 0.041969 0.019483 -0.165729 0.029927 0.010328 0.033372 0.103015 0.042090 0.018499 -0.084572 -0.187123 -0.069603 -0.061107 -0.055400 -0.125332 0.111438 -0.206409 -0.008275 0.049859 -0.004892 -0.110811 -0.148427 -0.059456 -0.008731 0.008603 0.215825 0.198095 0.026838 0.107715 0.085359 0.148266 0.065519 -0.166406 -0.296506 0.235270 0.011006 -0.131244 0.146872 0.129842 0.127008 -0.031049 0.037072 0.037212 -0.067484 -0.400221 -0.012032 0.259031 0.138917 -0.055731 -0.206756
0.155580 -0.158454 -0.055771 -0.443473 0.080885 -0.043868 -0.126806 -0.002093 0.076333 -0.179076 0.063430 0.261269 -0.041877 -0.244751 -0.026020 0.176277 0.224727 -0.061223 0.011411 -0.249785 -0.028762 0.038034 -0.015766 0.180888 0.002546 -0.083240 0.099397 0.076431 0.093771 -0.000555 -0.141024 0.125379 0.210620 0.162894 0.044185 0.023059 -0.251415 0.046273 0.072845 0.048461 -0.223880 -0.039596 0.061616 -0.037775 0.028591 0.068121 -0.002198 -0.275321 0.123637 0.312676 0.139194 0.047239 0.277916 -0.021066 -0.082481 -0.029874 -0.128089 -0.044327 -0.232535 -0.024092 -0.059859 -0.119958 0.192124 0.237368 0.125059 0.157370 0.031218 0.172632 -0.239115 0.303799 0.148149 -0.008142 0.031743 0.123888 0.164275 -0.115532 0.069742 -0.075133 -0.034563 0.035971 -0.228434 -0.072195 0.116209 0.126124 0.107324 -0.054032 0.217963 0.001206 -0.269748 -0.135557 -0.071455 0.019541 -0.066283 0.140028 -0.194335 0.111839 0.016108 -0.132594 -0.063857 -0.243835 -0.159846 0.007406 0.203402 0.144356 0.125780 0.041600 0.219308 0.026918 0.115594 0.058386 -0.086493 -0.489197 0.166770 -0.060176 -0.179179 0.219671 0.142729 0.038897 0.050691 0.065225 0.017333 0.072640 -0.611846 -0.114942 0.284206 0.059635 -0.093262 -0.134590
0.208493 -0.269773 -0.019684 -0.351761 0.103161 -0.008483 -0.158984 0.044500 0.021562 -0.204386 0.095793 0.143207 -0.151264 -0.116905 -0.021280 -0.016219 0.039791 0.000610 -0.016177 -0.356393 -0.260001 0.071904 -0.071126 0.095716 -0.000585 -0.013019 -0.020119 0.167798 0.032767 0.001802 -0.252877 0.124285 0.073995 0.052986 0.044587 0.023107 -0.165767 -0.039588 -0.044538 0.079281 -0.302085 -0.029866 -0.004230 0.097346 0.025455 0.124051 -0.053348 -0.093537 0.086436 0.065690 0.038929 -0.043283 0.216502 0.088980 -0.087643 -0.003603 -0.038211 0.101126 -0.186758 0.008113 -0.125711 -0.052055 0.148601 0.042666 0.172463 0.167249 -0.019902 0.010122 -0.231491 0.136974 0.116553 -0.012716 0.124195 -0.067023 0.146297 -0.274479 -0.036048 0.008678 -0.076816 -0.020924 -0.111279 -0.041106 0.001524 0.037415 0.031435 0.104831 0.214654 -0.055479 -0.256987 -0.067011 -0.180199 0.007614 -0.160698 0.026362 0.005971 -0.008187 0.058630 -0.135373 0.029095 -0.370504 -0.070799 0.023042 0.063050 0.059583 0.002562 -0.059106 0.044576 -0.104891 0.187253 -0.005800 -0.087396 -0.474344 0.229811 -0.040259 -0.131879 0.071869 -0.086739 0.009143 0.165014 0.158472 -0.066938 0.034157 -0.430430 0.011298 0.260137 0.193477 -0.046116 -0.148679
0.016405 -0.141604 0.075352 -0.332129 0.167794 0.075950 -0.014206 -0.019320 -0.070122 -0.126038 0.008080 0.165145 -0.166033 -0.354218 0.018448 -0.163095 -0.200539 -0.086130 0.027627 -0.253498 -0.245407 -0.110833 -0.066055 0.001196 0.049744 -0.087876 0.018841 0.116942 0.013606 -0.100358 -0.268670 0.034627 0.003390 -0.060472 0.065042 -0.013036 -0.251787 -0.045649 0.044142 -0.040167 -0.235683 0.050927 0.068000 0.199623 0.059213 -0.042719 -0.100395 0.002971 0.227471 0.151991 0.069162 -0.116387 0.059499 0.006090 -0.042709 -0.120360 0.056399 0.005134 -0.070333 0.100381 -0.149221 0.012735 0.103841 0.006512 0.201737 0.119019 -0.215208 0.047491 -0.242700 0.168050 0.097234 -0.046390 0.131020 -0.114035 0.341347 -0.205423 -0.135308 -0.152320 -0.088023 -0.035901 -0.079429 0.082970 -0.028183 0.062003 0.075995 0.170835 0.126826 -0.073417 -0.167579 -0.066069 -0.119055 0.009796 -0.047861 -0.136555 -0.091073 -0.047772 -0.091761 -0.117145 0.020059 -0.417361 0.003303 0.110523 0.017599 0.032409 0.139363 -0.013392 -0.027132 0.024786 0.098508 -0.042289 -0.241178 -0.471928 0.154734 -0.022077 0.061317 0.063741 -0.097253 0.141553 0.041409 0.205241 0.061986 -0.080946 -0.378335 0.069440 0.296355 0.055107 0.003065 -0.115775
-0.100433 -0.206769 0.238818 -0.335367 0.197401 0.128240 0.002454 -0.010254 -0.043743 -0.197246 -0.016148 0.125488 -0.115955 -0.394476 -0.035282 -0.211299 -0.382778 -0.028170 0.022252 -0.192031 -0.233200 -0.166164 -0.073073 -0.097608 -0.057535 -0.050347 0.037177 0.049047 0.011114 -0.122592 -0.233869 -0.068046 0.022757 -0.055849 0.052904 -0.049396 -0.169457 0.055413 -0.021928 0.044927 -0.237380 -0.014892 0.089781 0.136512 0.129481 -0.037833 -0.031746 0.062666 0.153667 0.175309 0.122910 -0.001661 -0.039525 0.063833 -0.183218 -0.072680 0.076018 -0.030953 -0.115507 0.031851 -0.172186 0.017648 0.081939 -0.012527 0.017793 0.110039 -0.238819 0.003373 -0.170857 0.100358 0.023584 -0.003792 0.097901 -0.055929 0.325680 -0.310515 -0.115704 -0.215663 0.066469 0.145583 -0.179927 0.083150 -0.031506 0.052600 0.089730 0.221079 0.228272 -0.321735 -0.222359 0.065576 -0.115804 -0.027869 -0.163874 -0.086129 -0.185137 -0.211631 0.029577 -0.097026 0.005348 -0.332363 -0.073560 0.109549 -0.024583 0.132335 0.018402 -0.056820 -0.030934 -0.003553 0.031262 -0.018781 -0.191076 -0.283884 0.076966 -0.059889 0.136268 -0.085134 -0.120755 0.195640 0.049796 0.224445 0.031523 -0.005366 -0.254065 -0.010326 0.119530 0.110880 0.134944 -0.080917
-0.081816 -0.171739 0.132111 -0.300420 0.139674 0.094538 -0.028970 0.026121 0.016715 -0.180878 -0.058952 0.170395 -0.038002 -0.257715 -0.242736 -0.089151 -0.359506 0.008729 -0.015156 -0.211765 -0.150172 -0.264619 -0.035996 -0.157563 -0.121857 0.009486 -0.023002 0.004459 0.095828 0.013944 -0.099979 -0.063224 -0.020371 -0.223265 0.069950 -0.138329 -0.258325 0.093199 -0.155603 0.066577 -0.128075 -0.024560 0.057285 0.139382 0.034640 0.027819 -0.074420 -0.019769 0.289563 0.145818 0.076424 -0.023443 -0.001422 -0.022598 -0.236796 -0.037965 -0.039651 -0.062750 -0.089064 0.124907 -0.097177 -0.049800 0.034987 -0.095272 0.106374 0.032540 -0.207442 -0.058703 -0.207210 0.131374 -0.004422 -0.040053 0.108975 0.005621 0.314819 -0.405310 -0.117579 -0.204604 0.006588 0.155004 -0.157930 0.065997 -0.115483 0.000167 -0.098666 0.014744 0.217158 -0.393868 -0.213351 -0.008700 -0.209623 -0.112532 -0.147473 -0.089832 -0.206710 -0.287209 0.058885 -0.159622 0.006070 -0.275605 -0.156158 0.068214 0.003149 -0.003829 -0.000005 -0.112985 -0.131859 -0.021547 -0.068856 -0.061827 -0.215192 -0.343121 0.130599 -0.102499 0.102035 -0.159539 -0.020580 0.225441 0.059257 0.140941 -0.112517 -0.003966 -0.235203 0.100131 0.116005 0.129164 -0.019431 -0.035444
-0.162465 -0.170394 0.134125 -0.245294 0.124121 0.210743 -0.067634 0.061118 -0.119944 -0.159088 0.036226 0.120949 -0.143345 -0.262945 -0.217639 -0.119970 -0.402696 0.017791 0.056519 -0.098888 -0.115036 -0.206137 -0.088627 -0.175656 -0.122647 0.000766 0.026978 -0.037321 -0.024010 -0.050446 0.039753 -0.032573 -0.085726 -0.075614 0.033259 -0.129331 -0.094327 -0.019772 -0.162517 0.020127 -0.207060 0.030933 -0.045914 0.066557 -0.087444 0.102521 -0.202447 -0.172583 0.367321 -0.089669 0.007455 -0.072977 -0.057213 0.040505 -0.307590 -0.051721 -0.068709 -0.035979 -0.025233 -0.007922 -0.087293 0.052296 -0.025785 -0.107674 0.183014 -0.022417 -0.228594 -0.058521 -0.198563 0.075721 0.035200 0.058894 -0.015384 -0.011400 0.197765 -0.471287 0.028676 -0.223037 0.053267 0.152775 -0.100546 -0.000747 -0.140893 -0.058344 -0.045840 -0.071169 0.220053 -0.455817 -0.322331 -0.035488 -0.237631 -0.235209 -0.080730 -0.133992 -0.097553 -0.212843 -0.037485 -0.003118 0.244530 -0.303728 -0.248463 0.094936 -0.047306 -0.207055 -0.063473 -0.109070 0.029195 -0.131874 -0.125110 -0.286606 -0.173026 -0.281760 0.061679 -0.290908 -0.013810 -0.083090 -0.003378 0.108309 -0.068225 0.099972 -0.049297 0.073043 -0.376192 0.187560 0.101610 0.128232 0.010454 -0.034809
-0.117604 0.001982 0.056938 -0.302656 0.137557 0.265336 -0.002218 0.084134 -0.143057 -0.075460 -0.029528 0.127425 -0.207314 -0.065831 -0.332628 -0.049711 -0.408639 -0.006887 -0.020806 -0.205335 -0.172313 -0.300273 -0.072923 -0.055798 -0.253420 0.008363 -0.051710 0.021798 -0.024285 -0.006729 0.167840 -0.051165 -0.041410 -0.067430 0.087829 -0.110541 -0.180031 0.093231 -0.151249 0.014172 -0.201342 0.034194 0.018879 0.042198 -0.227655 0.064064 -0.391879 -0.187881 0.349504 -0.009232 0.021746 0.010280 -0.052386 0.013408 -0.185233 0.067387 -0.043438 -0.031462 0.089042 0.157147 -0.062161 0.195351 -0.082255 -0.155002 0.140313 0.005781 -0.139859 -0.172240 -0.091352 -0.093105 0.042991 0.120178 0.016458 -0.143487 0.165587 -0.545260 -0.009418 -0.219176 0.075261 0.096933 -0.218361 -0.136921 -0.033251 -0.032568 -0.056423 -0.319146 0.312709 -0.369805 -0.344739 0.016110 -0.298330 -0.118561 -0.053438 -0.208201 -0.158275 -0.234977 0.050082 0.023354 0.252250 -0.319600 -0.140827 0.127732 0.025081 -0.198517 -0.121709 -0.084732 -0.102179 -0.080287 -0.174544 -0.324066 -0.137047 -0.186276 -0.111914 -0.269031 -0.070602 -0.003186 0.031931 0.051756 -0.076532 0.008014 -0.024267 0.109181 -0.351469 0.163322 -0.039525 0.148925 -0.038062 0.024101
-0.003592 -0.012665 -0.018685 -0.388175 0.064114 0.286316 -0.099948 0.019840 -0.022336 -0.039647 0.062645 0.044975 -0.247748 0.086432 -0.367106 -0.003162 -0.362412 -0.007619 -0.069768 -0.209666 -0.195563 -0.321177 -0.098664 -0.110260 -0.254310 0.003509 -0.030891 -0.027693 0.008359 -0.107981 0.315570 -0.003453 -0.108438 0.053082 0.035972 0.000609 -0.108336 -0.070928 -0.170300 0.069995 -0.200387 0.029044 -0.001720 0.084598 -0.554131 -0.021302 -0.454288 -0.219363 0.209766 -0.055162 -0.023242 0.021637 -0.010262 0.119971 -0.060082 0.044336 -0.084021 -0.021846 0.053712 0.087453 -0.094450 0.135391 -0.069594 -0.167796 0.089713 0.016780 -0.195214 -0.119120 -0.181042 -0.061119 -0.038537 0.122860 0.175954 -0.106584 0.125853 -0.559912 0.085832 -0.194601 -0.079835 -0.003891 -0.106534 -0.155231 -0.009491 -0.038522 -0.075205 -0.365339 0.321647 -0.167240 -0.278354 -0.162655 -0.256071 -0.129562 -0.055390 -0.154338 -0.031834 -0.132035 -0.062657 -0.051000 0.295026 -0.393662 -0.198963 0.022014 -0.039461 -0.281596 0.049022 -0.241662 -0.098628 -0.191747 -0.042613 -0.291794 -0.025904 -0.205974 0.014465 -0.185974 -0.030169 -0.033142 0.049306 0.049669 -0.029161 0.047674 0.029404 0.040197 -0.466713 0.035904 -0.022503 0.098257 -0.089849 0.054484
0.093132 0.141718 -0.091561 -0.383012 -0.017337 0.304421 -0.106453 0.050883 -0.121148 -0.181460 -0.001138 -0.051244 -0.331756 -0.004289 -0.271954 -0.011879 -0.215291 -0.074040 -0.027542 -0.241296 -0.100275 -0.170152 0.003372 -0.006993 -0.430126 -0.060260 0.038936 -0.084762 0.123744 -0.028933 0.329731 0.032906 -0.005197 0.020415 0.140015 -0.100282 -0.142614 -0.089115 -0.137192 0.127949 -0.193084 -0.054224 0.029329 0.002926 -0.593424 0.043739 -0.584236 -0.236635 0.014582 -0.095867 -0.014495 0.085757 -0.026851 -0.018160 0.062471 0.131760 -0.007799 0.034303 -0.016242 0.156227 -0.140686 0.157713 0.076565 0.015018 0.143839 -0.051304 -0.312736 0.006705 -0.297229 -0.115571 -0.009641 0.290413 0.089442 -0.154184 0.137880 -0.515371 0.068214 -0.036792 -0.042705 0.046412 -0.083951 -0.293329 -0.051347 -0.022972 -0.101088 -0.477769 0.231918 0.068196 -0.254263 -0.071915 -0.096258 0.012341 0.010357 -0.023601 -0.104156 0.062697 0.019222 -0.057422 0.110282 -0.340927 -0.057475 0.007116 -0.027688 -0.141695 -0.018697 -0.239963 0.008605 -0.157680 0.004178 -0.250705 -0.020475 -0.137528 -0.067652 -0.289707 -0.069622 -0.048684 0.023677 -0.066777 -0.090953 0.035904 0.139577 0.112033 -0.383922 0.100967 -0.100706 0.184322 0.032401 0.046207
0.023785 0.127430 -0.109681 -0.355110 -0.052899 0.134254 -0.066030 0.132655 -0.101153 -0.071524 -0.012507 0.083394 -0.275059 0.048673 -0.172524 0.035290 -0.105085 -0.037771 0.068199 -0.233294 -0.043129 -0.110671 -0.134713 0.098411 -0.556517 -0.066631 0.053469 -0.121034 0.044893 -0.060200 0.384383 -0.081617 -0.049261 0.108268 0.121689 -0.027379 -0.113682 -0.072937 -0.021872 0.005761 -0.230517 0.038378 -0.011255 0.051713 -0.296394 -0.000496 -0.499158 -0.067273 -0.331979 -0.081050 0.049788 -0.018809 0.019247 -0.020349 0.051539 0.096601 -0.071845 -0.077693 -0.066767 0.127951 -0.108252 0.075793 0.117940 -0.039137 -0.000570 -0.011164 -0.187562 -0.019820 -0.240841 -0.019417 0.012574 0.251146 0.212832 -0.044926 0.089445 -0.538026 -0.023324 -0.109882 -0.021466 0.128557 -0.130796 -0.463588 -0.055568 0.068063 0.032613 -0.480219 0.231954 0.198705 -0.262550 -0.079759 0.173649 0.009393 -0.087569 -0.014073 -0.086298 0.125218 0.043737 -0.013236 -0.047784 -0.361029 -0.003642 0.081077 0.075561 -0.095005 0.023967 -0.115239 -0.086093 -0.318011 0.038117 -0.225841 0.022975 -0.181635 0.066864 -0.193546 -0.001360 -0.102743 0.076186 -0.031198 -0.052220 0.029931 0.053526 0.056722 -0.162190 -0.089914 -0.256429 0.144799 -0.033756 -0.001492
0.153100 0.032607 -0.003380 -0.226189 -0.006052 0.057751 -0.060001 0.062537 -0.057492 -0.005375 0.024173 0.045212 -0.227772 0.026378 -0.201767 0.138848 -0.001623 -0.022823 0.034440 -0.243414 0.036406 -0.055840 -0.067929 0.110723 -0.601034 0.041117 0.030040 0.029316 0.011613 0.016766 0.024902 -0.119596 0.111801 0.037174 0.101387 0.078610 -0.096056 -0.157708 -0.110412 0.027168 -0.211400 -0.031082 -0.002302 -0.025786 -0.064967 -0.004752 -0.281245 0.022733 -0.648737 -0.184055 0.063460 -0.068745 0.024821 0.054949 0.057338 0.010721 -0.085026 -0.004431 -0.075301 0.196319 -0.074950 0.088058 0.016101 -0.102673 0.064662 0.040185 -0.223124 0.061502 -0.251968 -0.176180 -0.062028 0.208216 0.171633 -0.158069 0.030441 -0.383807 0.076822 -0.014515 -0.047047 0.065243 -0.011810 -0.575261 -0.005373 0.041364 0.017197 -0.683619 0.125512 0.177512 -0.284745 -0.108079 0.279788 0.069002 0.003170 0.004590 -0.096709 0.163236 -0.002060 -0.075587 -0.024038 -0.286528 -0.106266 0.043752 0.115183 -0.046012 0.116573 -0.195441 -0.079121 -0.180287 0.007560 -0.268390 0.037184 -0.226968 0.084414 -0.086145 0.041829 -0.075870 0.022280 0.025964 0.003417 -0.077674 0.111725 0.007401 -0.139115 -0.127429 -0.240113 0.154389 -0.036654 0.028665
0.102600 0.007064 -0.089370 -0.293224 -0.155203 -0.010355 -0.030559 0.078304 -0.109921 -0.060602 -0.031261 0.057675 -0.107522 0.180987 0.061122 0.080272 -0.061810 0.019366 -0.008423 -0.353992 -0.023392 -0.063985 -0.078528 0.188503 -0.520577 0.062358 -0.090592 0.054134 -0.049534 -0.012379 -0.449514 -0.108722 -0.011821 0.096659 0.103034 0.125166 0.019867 -0.087851 -0.113318 -0.023578 -0.288275 0.013459 -0.120916 0.018918 0.111278 -0.228409 -0.157541 0.010522 -0.720840 -0.314413 0.014274 -0.043173 0.004795 0.001314 0.126439 0.009324 0.128454 0.051644 0.038187 0.134879 0.068456 -0.006060 -0.013265 -0.108629 0.100640 0.012250 -0.156632 0.012162 -0.209375 -0.041445 -0.116980 0.202328 0.172723 -0.017522 0.054699 -0.437878 0.044770 -0.146279 -0.111237 0.043069 0.076080 -0.468821 -0.040085 -0.007118 0.072521 -0.609479 -0.045415 0.211030 -0.378553 -0.060534 0.414472 0.030048 0.181104 0.043506 -0.247124 0.113520 0.013853 -0.036054 -0.132527 -0.237949 -0.074794 0.065754 0.150396 0.041720 0.125295 -0.182288 -0.113611 -0.302570 -0.036961 -0.125428 -0.038189 -0.228609 0.011772 -0.040882 -0.022403 -0.032638 -0.100579 0.092239 0.024969 -0.058942 0.012156 0.016584 -0.319822 -0.124061 -0.221821 0.099281 -0.138232 -0.037329
0.064084 -0.020535 -0.128093 -0.295957 -0.197136 -0.081195 -0.064941 0.030975 0.036412 0.020875 0.010356 0.023869 -0.020418 0.171358 0.095693 0.022180 0.014755 0.085220 0.012126 -0.360323 0.117457 -0.124277 -0.032069 0.042751 -0.496735 0.069140 -0.000475 0.193235 0.057381 -0.097487 -0.905602 0.096380 0.096737 0.055932 0.188101 0.021598 0.035952 -0.058819 -0.166444 -0.111497 -0.192817 -0.012840 -0.010989 0.055962 0.067926 -0.344434 -0.073723 0.093442 -0.542119 -0.524855 0.045398 0.007003 0.073257 0.003134 0.105769 0.054305 0.113659 -0.041246 -0.065942 0.310071 0.023645 -0.056599 0.016531 -0.069100 0.047804 0.038268 -0.226615 0.084633 -0.209539 -0.017992 -0.131628 0.159259 0.208923 -0.084185 -0.014512 -0.370445 0.010013 0.004244 -0.118089 0.144863 0.057104 -0.210548 0.130326 -0.048748 -0.008514 -0.479378 -0.076842 0.149535 -0.263033 -0.009068 0.153657 -0.005525 0.200088 -0.125707 -0.165875 0.145071 -0.077697 -0.081168 -0.026345 -0.219563 -0.019575 0.003980 0.167225 -0.008932 0.103165 -0.112840 -0.048596 -0.229044 -0.067626 -0.221281 0.028930 -0.077594 0.058478 0.163275 -0.013810 0.046735 -0.043963 0.136923 0.099210 -0.118575 -0.029919 -0.063079 -0.323310 -0.117777 -0.296590 0.092213 -0.066205 -0.031961
0.048601 -0.029036 -0.132562 -0.118069 -0.304260 -0.162270 -0.021834 0.080064 0.055606 0.014551 -0.047951 0.007108 -0.006978 -0.068724 -0.041107 0.015458 -0.045744 -0.010019 -0.030008 -0.278059 0.031811 0.109040 -0.089096 0.061211 -0.488477 0.057333 0.018596 0.156499 -0.001383 -0.132648 -0.799244 0.115650 0.178629 0.067974 0.136092 0.032258 0.164694 -0.046533 -0.090126 0.004069 -0.238504 0.062365 -0.076865 -0.090446 0.133061 -0.369782 0.014478 0.097467 -0.319429 -0.469139 0.039163 0.010873 -0.041779 0.013539 0.180237 0.077064 0.084379 0.001004 -0.016176 0.237117 0.047462 -0.137641 0.034410 0.022986 0.068359 0.042798 -0.164312 -0.031809 -0.134627 0.000918 -0.176490 0.030618 0.133323 -0.057552 -0.029798 -0.347576 -0.000724 -0.109278 -0.183751 0.045069 0.080578 -0.230309 0.101774 -0.047394 0.074373 -0.259174 -0.167043 0.018529 -0.189697 -0.144122 -0.118634 0.020723 0.097545 -0.035105 -0.162158 -0.001940 -0.119235 0.027923 0.038629 -0.223474 -0.006351 0.094535 0.243405 0.012034 0.120769 -0.141936 -0.049614 -0.203976 0.070504 -0.296710 -0.016345 -0.213183 0.030827 0.298808 -0.043933 -0.067141 -0.066228 0.041470 0.022186 -0.017024 0.026383 -0.050552 -0.360111 0.016481 -0.146334 0.030163 -0.005354 0.041983
-0.014336 -0.112372 -0.062642 -0.163362 -0.257205 -0.117834 -0.007114 0.102144 -0.030581 0.001528 -0.061024 0.079366 0.029757 -0.056254 0.039832 -0.134643 -0.051820 0.006464 -0.070923 -0.327859 -0.010782 0.098747 -0.100389 0.113813 -0.429993 -0.029557 0.002282 0.101255 -0.019540 -0.131907 -0.432249 0.057475 0.207717 0.039259 0.076407 0.133215 0.076188 -0.000976 -0.125988 -0.050296 -0.120045 -0.051975 0.035399 -0.122309 0.207050 -0.310249 0.124393 0.028231 -0.114022 -0.398451 0.025902 0.083552 -0.075419 0.065778 0.050646 -0.029243 0.081647 -0.093875 0.064371 0.159280 0.037691 -0.185173 0.043461 0.081220 0.079806 -0.013919 -0.214548 0.026055 -0.033704 -0.126082 -0.012812 0.126844 0.183522 -0.104940 0.005595 -0.418128 -0.020771 -0.077514 -0.126467 0.082765 0.011089 -0.062328 -0.013399 0.054121 0.030912 -0.112097 -0.059521 -0.125041 -0.228747 -0.144778 -0.254385 0.021214 0.025657 -0.133575 -0.241113 -0.044545 -0.006256 -0.049603 -0.077469 -0.309173 -0.053255 0.012244 0.198798 -0.022874 0.035695 -0.069085 -0.137247 -0.216662 -0.046136 -0.245991 -0.029110 -0.115852 0.062768 0.197260 -0.002875 -0.021441 -0.023133 0.059596 0.017887 -0.041669 -0.109661 -0.054574 -0.480457 0.033039 -0.106521 -0.120538 -0.014425 0.026669
0.064398 -0.086723 0.014021 -0.063575 -0.171360 0.017876 0.049333 -0.007502 0.025566 -0.048505 -0.003577 0.007928 0.107186 -0.151524 -0.006309 -0.274118 -0.066313 0.023879 -0.023639 -0.402222 0.026481 0.158439 -0.090879 0.176187 -0.315053 0.102487 0.034293 0.194213 -0.012949 -0.181421 0.015404 -0.038344 0.297058 0.043658 0.073520 0.047971 0.103897 -0.106067 -0.123900 0.020298 -0.345319 0.007418 0.049457 -0.106309 0.065619 -0.275794 0.056331 0.016807 -0.141517 -0.360106 0.021123 0.105098 -0.143461 0.042329 0.013779 -0.002198 0.031982 -0.099558 -0.066886 0.166937 0.064311 -0.408451 0.029915 0.035352 0.183577 0.040665 -0.113102 -0.037326 0.004608 0.001665 0.026872 0.068333 0.047464 -0.029298 0.021842 -0.335273 0.002754 -0.056223 -0.141887 0.021696 0.008018 -0.079065 0.037641 -0.037523 -0.021497 -0.029858 -0.110227 -0.285647 -0.118587 -0.166958 -0.460528 0.052283 0.027944 -0.055214 -0.292901 0.062153 -0.049620 -0.027426 -0.067965 -0.332714 -0.208983 0.073017 0.169649 0.088849 -0.039767 0.028867 -0.101366 -0.289798 0.106590 -0.220118 -0.131147 -0.189424 0.072927 0.209664 0.097837 -0.007260 -0.060705 0.158527 0.060366 -0.062169 -0.009084 -0.084520 -0.449668 0.019252 -0.189076 -0.089888 -0.038590 0.104830
0.030945 0.059773 0.067747 -0.140929 -0.009895 0.015301 0.027493 -0.007184 -0.103791 -0.055715 -0.060654 0.123777 0.138344 -0.081314 -0.144189 -0.317765 -0.162070 0.035437 -0.032580 -0.308431 -0.051872 0.213262 -0.087026 0.074080 -0.235918 0.096980 -0.038591 0.147514 0.004952 -0.140586 0.221895 -0.041336 0.237374 0.074402 0.000117 -0.057578 0.159562 0.013104 -0.071180 0.073614 -0.385005 0.004714 -0.009837 -0.032787 0.097789 -0.235131 0.033615 0.072650 -0.144374 -0.420024 0.088879 -0.023343 -0.069483 0.076225 0.023302 0.075325 0.033392 0.010227 -0.051101 0.160831 0.021854 -0.510033 -0.082912 0.120907 0.151222 -0.053272 -0.081687 0.055188 -0.011091 -0.137769 0.078743 0.061806 0.032910 -0.048081 0.091410 -0.217198 0.052838 -0.045751 -0.135475 0.033905 -0.054607 -0.097096 0.032140 0.056003 -0.081641 0.043782 0.062367 -0.355336 0.012331 -0.144475 -0.588807 0.099223 0.066793 -0.202134 -0.355067 0.020004 -0.110353 -0.104360 0.061590 -0.204567 -0.148487 0.052510 0.072677 0.056547 -0.170646 -0.031569 -0.075294 -0.307540 0.067762 -0.068962 -0.024771 -0.122986 0.071758 0.009143 0.011805 0.023887 -0.069328 -0.002055 0.020023 0.069625 -0.090473 0.058384 -0.275007 0.148040 -0.193122 0.103111 -0.120578 0.014431
-0.017713 0.035787 0.111937 -0.021817 0.182426 0.090805 -0.047648 0.044466 -0.056222 0.029420 0.018618 0.119485 0.144693 -0.008755 -0.088536 -0.276469 -0.024464 0.012471 0.016846 -0.247076 -0.000804 0.108179 -0.102899 0.045805 -0.117568 0.002030 0.041134 -0.043119 0.076450 -0.088534 0.125734 0.082963 0.251481 0.161500 0.081904 -0.039547 0.121845 -0.056968 -0.100702 -0.043401 -0.458916 0.078377 0.129470 -0.033090 0.124974 -0.032409 -0.024432 -0.016503 -0.091064 -0.229534 0.109368 0.081245 -0.046255 0.009695 0.109196 0.009868 -0.065182 0.013442 0.027287 0.001653 -0.001826 -0.434648 -0.078865 0.117616 0.167127 -0.090899 -0.027167 0.031578 0.000114 -0.066208 0.000774 0.054775 -0.075603 -0.007215 0.066647 -0.077703 0.093832 -0.130762 -0.045750 0.053622 -0.098797 0.007971 -0.005305 0.024833 -0.024128 0.029965 -0.019615 -0.237007 0.087731 -0.115648 -0.495408 0.061502 0.033624 -0.196759 -0.426615 0.064415 0.032974 -0.024024 -0.091546 -0.147093 -0.059625 -0.044195 0.068789 0.017322 -0.174360 -0.048809 -0.028112 -0.322093 0.107193 -0.112997 -0.031824 -0.094272 -0.002343 -0.104955 0.004734 0.037421 -0.028324 0.059502 -0.074563 0.060828 -0.049434 0.003956 -0.239773 0.048190 -0.098673 0.071149 -0.055690 0.066392
0.023180 0.181764 0.137029 -0.013404 0.225183 0.028641 -0.094828 0.001891 0.020252 -0.041398 -0.028505 0.085203 0.081147 -0.011230 -0.101435 -0.360590 -0.042223 -0.060558 -0.045631 -0.262331 -0.056352 0.161776 -0.135023 -0.020132 0.017540 0.074261 0.052453 -0.084490 0.058497 0.041791 0.200311 0.082775 0.162148 -0.000815 0.027110 0.100142 0.010127 0.004350 -0.009897 0.058991 -0.445892 0.009244 0.128035 -0.105071 0.227873 0.113315 -0.090274 0.046620 -0.075841 -0.264122 0.013952 0.095958 -0.209845 0.154555 0.034663 0.087025 -0.058345 -0.008829 0.039086 0.001578 0.067518 -0.318429 -0.180731 0.029999 0.080667 -0.075554 0.095803 -0.127668 0.035348 -0.073673 -0.061673 0.116002 -0.023666 0.020295 0.082221 -0.149490 0.052344 -0.017399 -0.190829 0.133198 -0.243946 0.103501 -0.007001 -0.018511 -0.100356 0.129886 -0.070961 -0.185942 0.011376 -0.090004 -0.403228 0.158560 0.171384 -0.130894 -0.179187 0.021159 0.015640 -0.028452 -0.041510 -0.189675 -0.067628 -0.009041 0.151939 -0.037214 -0.324475 0.054195 -0.086419 -0.237509 0.016250 -0.071216 -0.083747 -0.132181 0.033255 -0.284753 0.083644 -0.012454 -0.007292 0.043111 0.039614 -0.029585 0.000314 -0.033770 -0.409761 0.057228 0.136236 -0.071984 0.015123 -0.009801
0.036652 0.125223 0.157226 0.013289 0.212611 0.033657 -0.098752 0.065608 -0.038695 0.026790 0.129150 0.001343 0.176151 0.107694 0.017670 -0.141253 -0.085513 0.102307 -0.040764 -0.280046 -0.047394 0.037475 -0.113198 -0.057869 -0.012207 0.001936 0.161922 -0.092189 0.126237 0.031470 0.109278 0.024495 0.077259 0.089101 0.033861 0.074303 0.076222 -0.112933 -0.175048 0.051486 -0.375752 0.003005 0.083963 -0.087425 0.198682 0.147201 0.080611 0.053090 0.049156 -0.098288 0.052867 0.182133 -0.269773 0.098446 0.050469 -0.032210 -0.037438 -0.023860 0.064904 0.016539 0.113614 -0.234190 -0.323584 0.085707 0.084182 0.056794 0.020459 -0.012861 0.025528 -0.043634 0.002346 0.154803 0.014381 -0.115662 0.111233 -0.109887 0.173688 -0.011097 -0.218213 0.100769 -0.359539 0.150686 0.080172 -0.059674 -0.147760 0.063954 -0.055214 -0.059494 0.144087 -0.080222 -0.319417 0.189895 0.102732 -0.096608 -0.031277 0.024378 0.005308 -0.030895 -0.040810 -0.175285 -0.031147 -0.031806 0.145754 0.072703 -0.333115 0.144858 0.012987 -0.276811 0.093854 -0.079989 -0.003537 -0.243281 -0.120249 -0.333271 0.013581 -0.033432 -0.149262 0.128156 -0.003404 0.087972 0.024082 0.065276 -0.378200 0.088417 0.231228 -0.214459 0.030740 -0.016094
0.098595 0.119008 -0.000866 0.005291 0.081660 0.051788 -0.079777 -0.004867 0.036720 -0.005858 0.168556 0.045561 0.056103 0.064358 -0.012579 -0.013172 -0.036268 0.028321 0.030794 -0.342596 -0.046700 -0.013152 -0.032180 -0.056509 -0.008603 0.027781 0.093673 -0.066207 0.091869 0.004131 0.043523 0.092717 0.112806 0.004548 -0.002232 -0.065620 -0.009179 -0.047799 -0.159568 0.101853 -0.250372 -0.105488 0.028210 -0.071182 0.090242 0.269217 0.061733 -0.077612 0.157191 -0.111395 0.012651 0.100358 -0.012583 0.076880 0.034048 -0.005148 -0.103515 -0.012862 -0.026703 0.060899 0.081098 -0.127223 -0.260324 0.052075 0.148742 0.050912 0.017709 -0.065796 -0.128346 -0.144640 -0.005119 0.068924 -0.037357 -0.066610 0.117230 -0.046456 0.021096 -0.035668 -0.123385 0.067118 -0.224549 0.152201 0.130330 -0.088537 -0.077069 0.139513 -0.035353 0.041025 0.122503 -0.026532 -0.286905 0.148052 0.244376 -0.148473 -0.035512 -0.046501 -0.034010 -0.003804 -0.195891 -0.355665 0.058220 0.099372 0.091190 0.019445 -0.436509 0.120714 -0.041404 -0.078519 0.026682 -0.196697 0.051122 -0.204088 -0.140734 -0.373839 0.006442 -0.051491 -0.199257 0.046600 -0.022378 0.163345 -0.107773 0.064525 -0.285677 0.024919 0.225739 -0.264897 0.006271 -0.003876
0.059784 0.197685 -0.031575 0.046086 0.048615 0.102524 -0.072653 0.060450 0.018187 -0.075654 0.000233 0.078111 0.124563 0.023893 0.040962 0.230063 -0.004058 0.104767 -0.000740 -0.466987 -0.061289 -0.140702 -0.015517 -0.059076 -0.066832 -0.081470 0.035213 -0.088561 -0.029968 0.155180 0.229412 0.132504 0.044742 -0.018585 -0.076026 0.041258 0.048810 -0.127307 -0.164389 0.051946 -0.191928 -0.032839 -0.082600 -0.055594 0.062378 0.273894 0.054017 -0.121512 0.168862 0.014205 -0.109086 0.270819 0.159711 0.115003 -0.117161 0.047570 -0.007696 0.009061 -0.089592 0.011545 -0.092729 -0.119642 -0.012615 0.119477 0.185104 0.027181 -0.060444 -0.007175 -0.052429 -0.000583 0.101611 0.240684 -0.092568 -0.091395 -0.019711 -0.106070 0.145064 -0.006488 0.075808 0.108181 -0.189157 0.039297 0.068482 -0.039024 -0.084474 0.186971 0.111130 0.131495 -0.046855 -0.045290 0.015487 0.094725 0.052586 -0.003890 0.012279 0.071205 -0.097735 0.040898 -0.019192 -0.237634 -0.000421 0.017600 0.119985 0.001406 -0.243000 0.076887 0.019874 0.058894 -0.057169 -0.205979 0.032597 -0.363073 -0.071227 -0.265342 -0.128687 0.003479 -0.106479 0.099758 -0.082757 0.149783 -0.173853 0.010316 -0.196020 -0.001371 0.223872 -0.232313 -0.069430 0.068266
