-0.140907 -0.129568 0.152847 -0.067142 0.072076 0.028190 0.019080 0.164165 0.075068 -0.062540 0.063608 0.041466 0.373785 0.444018 -0.074523 0.186098 0.047135 -0.117855 -0.028355 0.146655 0.120901 -0.036218 0.233021 -0.000203 -0.140620 -0.067734 0.248952 0.216498 0.387837 0.033235 -0.147252 0.615781 0.371634 0.063412 0.053430 0.186802 0.164844 0.327580 0.337425 0.190632 -0.035749 0.052696 -0.128086 0.426217 0.125454 -0.112721 0.047580 0.070674 0.219166 -0.050122 0.033725 0.110065 0.123312 -0.121601 -0.001393 0.442342 -0.002887 0.244809 -0.024765 0.130139 0.277613 -0.194194 0.233363 0.100314 0.183672 -0.332660 -0.124797 0.053565 -0.131888 -0.125411 0.212718 -0.144873 -0.001460 0.364741 0.066465 -0.274231 -0.019516 0.093110 -0.156313 0.014550 0.416114 0.166727 -0.108379 0.010830 0.088885 -0.035998 -0.400914 -0.159740 0.106780 0.337954 0.307011 0.313650 -0.025089 -0.201891 -0.009678 -0.205239 0.091453 0.280959 0.054430 0.092155 0.227440 0.040558 -0.159578 0.139236 -0.156217 0.196461 -0.069758 -0.222839 0.157185 -0.097441 -0.084626 0.251951 0.163338 -0.064783 -0.073304 0.215513 0.005503 0.135938 -0.056077 -0.144149 0.155964 -0.042899 -0.090349 -0.243694 -0.069020 0.003069 0.081693 0.072382
